{"schemaVersion":3,"description":"Fine-tuned GutCore encoder features and ABMIL heads for selected-frame browser replay. Spatial heatmap PNGs use the same fine-tuned model.","featureDim":1024,"tasks":{"cancer_detection":{"positiveClass":"Cancer","negativeClass":"Non-cancer","classifierWeight":[[0.01234,-0.007224,0.013691,-0.012222,0.023091,-0.023611,0.015724,-0.000771,-0.011787,0.020447,0.026304,-0.011693,0.021689,0.004504,-0.022926,0.005143,-0.028274,-0.003018,0.019001,0.009023,-0.011194,0.007024,0.006501,-0.028027,0.032034,0.00563,0.008032,-0.032857,-0.000905,-9e-05,-0.022608,-0.024341,0.011578,-0.011974,-0.005682,-0.030535,-0.027209,0.012874,-0.023035,0.015531,0.011659,-0.01805,0.007224,-0.033478,0.027536,0.024113,0.02989,0.006415,-0.002579,0.027368,0.001199,-0.022498,0.002904,0.033683,-0.006585,0.000336,-0.015686,0.011363,0.005006,-0.003653,-0.031207,0.013433,-0.022909,-0.000901,-0.024526,0.025388,-0.031092,0.022063,0.011559,-0.001418,-0.00352,0.017767,0.003529,-0.010804,-0.02269,0.033571,0.002644,0.003261,0.032035,-0.014844,0.030281,0.033477,-0.020884,-0.019756,-0.036494,0.017745,-0.031314,-0.031522,0.008959,-0.015386,0.004465,-6e-06,-0.02672,0.012131,-0.020273,0.030854,-0.025924,0.025934,0.00534,-0.034407,-0.001841,-0.008274,0.011661,0.021556,0.008729,-0.015242,0.013051,0.031101,-0.016303,0.000471,-0.004573,0.000279,-0.010744,0.018492,-0.007014,-0.00493,-0.007765,0.023324,-0.00085,0.019264,-0.012003,0.01134,-0.006567,-0.00396,0.02484,-0.002895,-0.029824,-0.022302,0.015664,-0.013243,-0.029201,-0.024455,0.000862,0.023619,-0.016086,-0.031248,-0.040531,-0.023937,0.023149,-0.027294,0.013079,0.025448,-0.020271,-0.016086,0.01313,-0.038111,-0.018286,0.009254,0.02576,-0.01413,-0.017819,-0.01711,0.006349,0.00297,-0.005007,-0.005953,0.016029,-0.02457,-6.1e-05,-0.018493,0.032844,-0.01221,-0.025012,-0.017905,0.000263,0.007957,-0.021996,-0.009967,-0.023949,-0.006869,0.020581,-0.009794,0.024236,-0.005586,-0.004311,-0.029776,-0.008659,0.009498,-0.012002,-0.007113,0.001786,0.00429,0.031296,0.018579,-0.030374,0.014811,-0.017631,-0.024415,0.0271,0.019566,0.000678,0.003423,0.00508,0.018912,0.008339,-0.007394,0.007876,0.002027,-0.016606,0.00017,-0.018623,0.015253,0.003301,-0.023219,-0.009589,-0.006823,0.009058,-0.041177,0.009308,-0.004072,-0.011241,0.013603,-0.002865,0.03023,0.003533,-0.012412,0.000162,-0.001346,-0.005424,0.007416,-0.020122,-0.011991,-0.004459,0.024774,0.005064,0.004533,-0.005885,-0.000233,0.012196,0.004317,-0.008526,0.01808,0.021235,0.005581,-0.004808,0.037049,0.022978,-0.004922,-0.028359,-0.009472,-0.027106,0.007914,0.026652,-0.009085,-0.026845,0.032204,0.033507,0.033768,-0.022625,-0.027667,0.000172,-0.025768,-0.015953,0.013205,0.005761,0.01426,-0.008686,0.010554,-0.003085,-0.019378,-0.016594,-0.015273,-0.029417,0.004005,-0.014606,-0.004168,0.008579,-0.012312,-0.022326,0.010979,-0.011132,-0.020964,-0.006161,-0.016641,0.021756,0.000765,0.003695,-0.021005,-0.026944,-0.043851,-0.001061,0.001806,0.003573,0.018424,0.000325,0.001982,0.02305,0.006262,0.009195,0.013383,0.00864,-0.019997,-0.003436,0.000358,-0.022509,-0.005381,0.012195,-0.006436,0.029541,-0.022896,0.023047,-0.014112,-0.022156,0.014275,-0.018606,0.01209,0.002191,0.020569,0.030952,0.026491,-0.016011,-0.021073,0.011246,-0.024073,-0.007298,0.040803,-0.023055,-0.019663,-0.008786,0.022173,0.015101,-0.001535,0.003462,-0.004483,0.000268,-0.024038,0.02352,0.020788,0.011596,0.015829,0.010237,-0.014812,0.011878,-0.021051,-0.027804,-0.0266,-0.02397,-0.019631,0.030089,-0.038041,0.032833,-0.018546,0.007299,-0.012452,0.033401,0.012076,-0.021254,-0.01242,-0.021797,0.018034,0.028506,0.035433,0.019275,0.01741,-0.028854,-0.003779,-0.030133,-0.002285,-0.015646,0.006264,0.011026,-0.030417,-0.005081,0.000624,0.006145,0.027816,0.002777,0.00505,-0.002977,-0.015985,-0.028845,0.001957,0.005413,-0.021155,-0.011844,0.020594,-0.02152,0.026929,0.034923,0.018889,0.012113,-0.013501,0.011183,-0.006831,0.012778,0.00674,-0.031167,0.020406,0.011452,-0.020384,-0.029166,-0.003171,-0.024522,0.006987,0.002845,-0.007674,0.024718,-0.018167,-0.007053,-0.003832,-0.010572,-0.022263,-8.3e-05,-0.014978,0.02746,0.022676,0.007198,-0.008815,-0.015331,0.022097,-0.02492,0.034386,0.010411,-0.023789,0.011739,0.008697,0.011274,0.009496,-0.019572,0.015188,-0.04078,0.005271,0.029262,-0.017807,5e-06,-0.001128,-0.018023,-0.023267,-0.015812,-0.028182,-0.028855,-0.010604,-0.011701,-0.025894,0.005348,-0.0266,0.003495,-0.004662,-0.030521,0.012575,0.00932,0.030158,-0.012387,-0.026055,-0.028635,0.006217,-0.001481,-0.016847,0.019373,-0.034458,0.012956,-0.015401,0.001874,-0.003534,-0.015361,0.039008,0.001556,0.030317,0.02145,0.005583,0.014112,0.004404,-0.000451,0.02575,0.016275,0.005082,0.007387,-0.010841,0.01427,0.00214,0.027886,0.028303,0.004111,-0.03324,-0.010583,0.029376,-0.017719,-0.018649,0.024688,0.006742,0.030635,0.033937,0.002362,-0.011272,0.007176,-0.014437,0.030031,0.029131,0.000153,0.034532,-0.026619,0.024202,-0.031007,-0.029179,-0.020031,-0.007642,-0.019175,-0.019495,0.011482,0.013564,0.020691,-0.001798,0.005507,0.021789,-0.024039,0.004817,-0.009703,0.01491,0.036809,-0.003914,-0.019909,0.008521,-0.00842,-0.021503,0.022165,0.021613,-0.003692,0.01083,0.001726,0.027643,-0.00544,0.03125,0.00995,0.004406,0.03072,-0.004954,0.013396,-0.007805,0.029384,-0.017435,-0.00575,0.004839,-0.018871,0.013626,0.024915,-0.031677,-0.000933,0.015242,0.015574,-0.012917,0.001766,-0.008499,0.029047,0.027863,-0.005104,-0.0099,-0.002308,0.028188,0.02647,0.015371,-0.012449,-0.01571,-0.02015,-0.013546,0.016473,0.035725,-0.002679,-0.00718,-0.001349,0.007919,-0.015805,0.011678,0.006336,-0.010439,0.005039,0.030073,0.02576,-0.005864,-0.022191,-0.010005,0.03035,0.023473,-0.009934,0.00961,0.012187,-0.004896,-0.012447,-0.030412,-0.003842,-0.012793,-0.023019,0.022902,0.00776,0.030589,0.020742,-0.013072,-0.012774,-0.021645,0.001786,-0.010517,0.028671,0.006941,0.003382,0.013878,-0.023718,0.031236,0.006711,0.007094,-0.031113,-0.023042,-0.01205,0.020579,-0.019335,-0.015623,0.005818,0.003781,0.016502,-0.017121,-0.029506,-0.017916,0.017726,0.003968,0.012366,0.023161,0.031757,-0.007231,-0.009438,0.002996,0.003645,-0.002413,-0.02524,-0.010813,-0.007561,0.017795,0.004836,0.006771,-0.007095,-0.009951,0.02464,0.020029,0.012572,-0.0201,0.018092,-0.024081,0.002967,-0.013908,0.025942,-0.014844,-0.02878,-0.026055,0.005466,0.036467,-0.027038,0.006491,0.011404,0.020707,0.008423,0.00174,0.014682,0.021313,-0.012644,0.026342,0.010109,0.006119,-0.017298,0.002942,-0.018157,0.003173,-0.014521,-0.016217,-0.013161,0.007796,-0.010537,-0.002658,-0.03333,0.01397,-0.029442,-0.019024,0.012913,0.021461,0.028714,-0.017628,-0.024243,-0.024836,0.020803,0.028811,0.021536,-0.001186,-0.02833,0.016523,-0.021643,0.016645,-0.035281,-0.013381,0.008375,0.009871,-0.029301,0.015219,-0.029712,0.018582,0.003276,0.004599,0.029824,0.013391,-0.011309,-0.017685,0.006692,0.025895,0.024518,-0.021728,-0.006775,0.008728,0.020771,0.019811,-0.006049,0.01462,0.020657,0.006395,-0.00434,0.019596,-0.002151,0.035959,0.012832,0.016363,0.009963,0.024061,0.012157,0.010322,-0.011444,0.017517,-0.014663,-0.021595,-0.0008,-0.003067,-0.022658,-0.003906,-0.018716,0.027103,0.021515,-0.032425,-0.024936,0.025175,-0.000252,0.005715,-0.016141,-0.004214,-0.014646,0.021903,0.002845,-0.003646,0.027125,-0.011992,-0.007931,0.015777,-0.00765,0.031629,0.007219,-0.00505,0.043092,0.029004,-0.001318,-0.014333,0.005088,0.028528,-0.009246,0.024992,-0.000793,0.006447,-0.001601,-0.009916,-0.028877,-0.013482,-0.018066,0.011851,-0.00835,0.010645,0.019493,0.020421,0.017887,0.025626,0.025827,0.015874,0.016128,-0.034914,-0.019176,0.010982,0.00644,-0.036713,-0.006267,-0.03079,-0.020883,-0.01601,0.027246,0.02913,-0.025545,-0.00608,-0.026051,0.015664,-0.029348,0.001401,0.027132,0.018066,0.022684,0.018767,0.01052,0.001825,-0.014712,0.022201,-0.018789,0.003976,0.010053,-0.02757,-0.018741,-0.005696,0.012841,0.016559,-0.019284,-0.014828,0.010607,0.017823,0.02026,0.023701,-0.017457,0.030024,-0.013742,-0.015755,-0.015957,0.024839,0.007287,-0.006367,0.015785,0.015903,-0.000196,0.001842,-0.0072,-0.015024,-0.022606,0.013658,-0.028705,0.020594,-0.006659,0.020054,0.006942,0.022247,0.019908,0.017952,-0.028405,-0.001259,-0.042929,-0.008068,0.029176,-0.000148,-0.019844,0.012055,-0.013561,-0.003579,-0.012802,0.030493,-0.014659,-0.020693,0.024565,-0.02053,-0.013117,0.03161,-0.003574,-0.01514,0.008999,0.001112,-0.015452,0.019389,-0.009631,-0.00514,0.015617,-0.017337,-0.019073,-0.034732,-0.021119,0.012677,-0.006084,-0.012558,0.017849,-0.02952,0.001284,-0.032163,0.004011,0.029357,0.006593,-0.02393,-0.025585,-0.00559,-0.018748,0.001977,0.024057,-0.024848,-0.014928,-0.02478,-0.006937,-0.023502,-0.032932,0.003468,0.013417,-0.034687,-0.017562,-0.009426,-0.011128,-0.022779,-0.011795,0.019961,0.025224,-0.00202,-0.013274,-0.039208,-0.014545,0.003522,0.02372,-0.010987,0.010811,0.013372,0.009459,0.011712,-0.003914,-0.018358,-0.007328,-0.009228,0.02838,0.007906,0.015066,-0.026359,0.012617,0.007615,-0.029745,0.001085,-0.006073,0.012742,-0.019325,0.011584,0.015934,-0.030006,0.015623,0.017296,0.018533,0.014359,-0.007293,-0.032654,0.009923,-0.036911,0.00503,0.017428,0.025394,-0.023586,-0.019197,-0.03088,0.020825,0.028999,0.000979,0.024082,0.019189,-0.001328,0.015128,0.018007,0.002547,0.014899,0.00109,-0.029815,-0.011048,0.001564,-0.01417,0.003822,-0.016777,0.029882,-0.031068,0.020535,-0.021115,-0.001885,0.006676,-0.025827,-0.030578,0.0002,-0.0077,-0.020424,-0.031027,0.003621,-0.014054,-0.011976,0.003777,-0.015394,-0.014833,0.008181,0.028252,0.019769,-0.003942,-0.007683,-0.001374,-0.019567,-0.012111,0.003071,0.021615,0.021597,0.006873,0.016086,0.019297,-0.013643,-0.028428,0.006592,0.016223,-0.018113,0.001064,-0.004643,0.011594,-0.01077,0.016795,0.030705,-0.014366,-0.023556,-0.017964,0.015232,-0.018568,-0.000336,-0.022614,-0.033659,-0.011704,0.009868,-0.016541,-0.007167,-0.029792,0.007219,0.02764,0.023128,-0.00963,-0.006313,-0.018922,-0.016838,-0.009524,0.022235],[-0.01824,-0.014653,-0.008108,0.004543,0.005812,0.024323,0.033122,-0.021012,-0.02718,0.02417,-0.019612,0.026214,-0.013752,0.008195,0.009776,-0.020689,0.012716,-0.012303,0.003827,0.011661,0.018928,-0.031445,-0.020341,0.018276,-0.01233,0.007558,0.008807,-0.013212,0.007452,-0.028033,-0.027367,0.01803,0.006696,-0.003136,-0.00539,0.014247,-0.013021,-0.011167,0.025504,-0.010471,-0.013598,0.015439,-0.003247,0.000737,0.013389,-0.024814,-0.029221,-0.020537,-0.018772,0.005536,-0.004318,-0.012964,-0.004949,-0.016316,0.002926,0.003843,-0.022436,-0.019008,0.020473,-0.018682,-0.015779,-0.020479,-0.019328,-0.024294,-0.017857,-0.019057,-0.009524,0.014709,-0.007736,0.020886,0.018548,-0.030118,0.003188,-0.010495,-0.028122,-0.031597,0.003887,0.022022,-0.005831,-0.029393,-0.020814,0.011256,-0.015072,0.015203,0.034565,-0.033365,-0.009122,-0.013561,-0.01298,0.01904,0.017591,0.02246,-0.013718,-0.016693,-0.002976,-0.002766,-0.03378,-0.026924,-0.00682,0.036601,0.019692,0.002582,-0.00357,0.024799,-0.018789,-0.006759,0.01482,0.012542,0.030052,0.032883,0.011069,-0.004025,0.026157,0.010963,0.011567,0.021715,-0.002134,0.022425,-0.027118,-0.003113,0.017699,0.008663,-0.001832,0.01718,0.00159,-0.025626,-0.030079,0.010798,-0.023476,-0.010666,0.019006,-0.013661,0.001913,0.010254,0.009902,-0.006788,0.020133,0.025196,0.004201,0.010492,0.010314,-0.00313,-0.019317,-0.023187,-0.004495,0.005819,-0.011095,0.008415,0.014117,-0.01603,-0.003504,-0.001314,0.029484,-0.000409,-0.025036,0.032402,-0.000506,0.002119,-0.025732,0.026429,-0.002769,0.025018,0.016995,0.028001,-0.005974,0.027463,-0.006394,0.012051,0.02011,-0.016068,-0.008867,0.037032,0.003693,-0.006493,-0.005277,-0.017006,0.01545,0.014331,0.021167,0.009119,-0.014996,0.003651,0.005436,-0.021,-0.028054,0.0264,-0.00976,-0.02636,0.007695,-0.006869,-0.009412,-0.008747,-0.023551,0.00163,0.02679,0.026442,-0.025235,0.003152,-0.024452,-0.028882,0.029158,0.00948,0.006794,0.030697,-0.029555,0.029378,0.000195,2.4e-05,-0.010101,0.012156,-0.015625,-0.030626,0.024093,-0.007695,0.015362,0.043894,0.020726,0.007973,0.002681,-0.011176,-0.016191,0.011286,-0.017915,-0.022194,-0.004537,0.011096,-0.007461,-0.009785,-0.000652,-0.009241,0.020879,0.036472,0.026733,-0.00054,0.002141,-0.018835,0.009755,-0.018231,-0.012591,-0.003572,0.013325,-0.012799,-0.038189,-0.018447,0.030078,-0.003461,-0.018167,-0.014777,0.024094,0.002991,0.01488,0.036573,0.023974,-0.036068,-0.014003,0.02019,0.015721,0.034754,-0.001282,0.014359,-0.004058,0.029157,0.021507,-0.026889,-0.015915,0.023871,0.002298,-0.008681,0.018856,0.008267,0.000757,-0.014732,0.001041,-0.011835,0.007059,-0.01624,-0.0103,-0.01301,-0.019816,0.01557,-0.00159,-0.022742,0.003881,-0.008371,0.020822,0.01667,0.014947,-0.001148,0.023237,-0.002197,-0.003377,-0.02141,-0.012192,0.032543,0.019242,-0.003667,-0.021919,-0.025165,-0.020625,0.020348,0.030089,-0.011334,-0.028526,-0.025791,0.02239,0.01366,0.005288,-0.013071,-0.016845,-0.007379,-0.010482,-0.018508,0.021545,-0.018356,-0.004198,0.011173,-0.022288,0.014969,-0.020532,4.7e-05,0.009864,0.028403,-0.004345,0.006787,0.022292,-0.027947,-0.001279,-0.030438,-0.032364,0.003189,0.004847,-0.035173,0.01501,0.019207,0.012343,0.02447,0.030569,0.024261,-0.011548,-0.019193,-0.011956,-0.005703,0.026607,0.010998,0.013366,-0.009693,0.008736,0.00203,-0.02565,-0.009888,-0.012783,0.004793,0.032182,-0.003992,-0.026163,0.01696,-0.017683,0.004879,0.002584,-0.024081,0.027512,0.031977,-0.018853,-0.011156,0.006683,-0.025988,-0.026481,-0.002815,-0.003958,-0.026733,-0.021494,0.007216,0.000433,-0.026543,-0.006209,-0.001772,-0.006704,-0.014599,-0.004261,-0.002846,-0.021164,-0.018706,-0.021278,-0.002787,-0.008628,-0.017996,0.023864,0.006152,0.036221,0.002214,-0.009808,-0.00319,0.019445,0.02736,-0.026831,-0.024884,-0.015861,0.036163,-0.006203,-0.026786,0.012056,-0.022263,0.002703,-0.001369,-0.0354,0.013222,0.028436,0.012499,0.006899,-0.017673,-0.016291,-0.006445,-0.006603,-0.010752,-0.007633,0.02564,0.022861,0.018845,0.002455,-0.000895,-0.018514,0.012923,-0.032157,-0.03726,0.016777,-0.016981,-0.00599,0.009518,-0.016683,-0.006135,-0.016595,-0.021248,0.000342,-0.019323,-0.001412,0.023726,0.008102,-0.011184,0.015312,0.034688,-0.011507,0.014573,0.011792,-0.029558,-0.023208,-0.026974,0.01945,0.012164,0.019284,0.03187,0.024254,-0.020127,0.003489,-0.028014,-0.000275,-0.012796,-0.024881,-0.019002,-0.025454,-0.027209,-0.012357,-0.000436,-0.002152,0.032642,-0.013917,0.032577,0.005397,-0.022691,0.005079,-0.011268,0.012142,0.00899,-0.022123,-0.011738,0.014201,0.008441,0.021516,-0.004273,0.001368,0.007829,-0.033956,-0.027024,0.012902,0.039875,0.01637,-0.005791,-0.032755,0.009151,0.013191,-0.02372,0.025934,-0.016358,-0.024675,0.025579,0.009803,-0.011432,0.007131,0.013859,0.027367,0.003047,0.028686,-0.015192,0.010034,0.037833,0.004565,-0.025457,0.024488,0.018183,0.022078,-0.00159,-0.01451,-0.023086,-0.017542,-0.021168,-0.012558,-0.007064,-0.020431,-0.03279,-0.006585,0.017798,0.005908,0.022439,0.015504,0.011553,0.004566,0.009934,-0.031002,0.003378,0.006887,-0.002658,0.02095,-0.000215,-0.009088,0.002204,0.007378,0.025015,-0.00742,0.025026,-0.005338,0.033532,0.008375,-0.014006,0.018269,0.008513,-0.021486,-0.007062,0.00838,0.016765,-0.010591,-0.007716,0.001374,-0.00847,-0.012218,0.023959,-0.017189,-0.013117,-0.030548,0.014853,-0.038354,0.022976,-0.030944,-0.010417,-0.024224,0.030077,0.017034,-0.01332,-0.030553,-0.008256,-0.021543,0.012439,-0.010319,-0.019379,0.018179,0.007729,0.017133,0.016662,-0.003708,-0.016988,0.0051,0.007771,0.030714,0.022513,-0.019025,-0.014934,-0.02875,-0.009593,-0.027331,0.008424,-0.010056,0.021933,0.021758,-0.019868,-0.02797,0.018208,-0.037543,-0.03264,-0.007711,-0.019527,0.035189,-0.024288,-0.011845,0.002291,0.02018,-0.02203,-0.026476,0.006698,0.021859,-0.009135,0.032771,0.02685,-0.027744,0.029676,-0.011427,0.000275,-0.007359,-0.006763,0.022305,0.012425,0.028919,0.013803,0.007772,0.001289,0.023961,0.013458,0.016468,0.010475,-0.00366,-0.00688,0.009684,0.023461,0.028665,-0.028117,0.024377,0.015552,0.007325,-0.003942,-0.020336,-0.026078,-0.026295,-0.033259,-0.024473,-0.032622,-0.00163,0.016093,-0.022008,-0.011505,-0.004084,0.019295,-0.007218,0.0139,-0.013964,-0.01521,0.014262,-0.025233,0.022053,0.026591,-0.028566,0.012636,-0.026736,-0.00116,0.005251,0.022245,0.02461,-0.034444,0.014682,0.028567,0.023775,0.002085,-0.010434,0.000116,0.002796,-0.017119,-0.005118,0.026079,0.013397,0.011202,0.023321,-0.001625,-0.003458,0.004998,0.025572,0.025326,-0.001929,-0.000882,0.003353,0.002978,0.012303,0.013065,0.015128,-0.023997,-0.023365,-0.009878,0.013804,-0.015941,-0.035193,-0.001304,0.005397,-0.015909,-0.008869,0.003423,0.021495,-0.03297,0.007402,0.001899,0.039378,0.012117,-0.003515,-0.021821,-0.026461,-0.009967,-0.00647,-0.004889,0.017236,-0.024152,-0.005327,0.021163,-0.008086,0.020623,0.003131,0.018309,0.014354,-0.029291,0.020409,-0.024676,0.015486,0.015011,-0.001354,0.030677,-0.012901,-0.015163,0.031606,0.014685,-0.016862,-0.001222,0.024563,0.010261,0.028589,-0.027132,0.013249,0.014547,0.000951,0.029829,0.022871,0.014751,0.019491,-0.030496,0.019393,0.029843,-0.022916,0.002707,-0.00467,-0.008706,0.010684,-0.02286,0.000696,0.017802,-0.025098,-0.021633,-0.018697,-0.03553,0.011492,0.014161,0.011767,0.006574,-0.001091,0.026802,0.028545,-0.023871,-0.018387,-0.010692,0.01285,0.002025,-0.014259,0.0136,-0.022283,-0.020381,0.026862,0.019036,0.029312,-0.009208,-0.01118,-0.018571,-0.004592,-0.006603,-0.032946,0.009653,0.015043,-0.010476,-0.01535,0.020806,0.000262,0.010266,-0.002473,-0.001678,-0.017206,0.001661,-0.007789,0.035441,-0.03003,-0.021523,-0.011076,-0.011875,-0.007313,-0.012509,0.013431,-0.020998,0.002503,-0.017741,0.006124,-0.028765,-0.027597,0.029055,0.03597,0.029799,0.003947,-0.023649,0.015478,0.019415,0.024328,0.016383,-0.030976,-0.014179,-0.025973,-0.012313,-0.015309,0.021618,0.011752,-0.018792,0.003901,-0.005531,-0.005089,0.019271,-0.008823,-0.027322,0.028049,-0.020326,0.01061,-0.025428,0.005115,0.02087,0.018226,0.028378,0.020954,0.019979,-0.011501,-0.015143,0.021841,-0.019165,0.019195,0.006948,0.010915,0.019628,-0.013073,0.02541,0.000391,0.00209,0.018867,-0.01161,0.018637,0.011965,0.012788,0.005958,0.024578,-0.022736,0.016474,-0.01364,0.00345,0.001275,-0.004688,0.017094,-0.003534,0.010521,-0.032885,-0.021399,0.013465,-0.025091,0.01148,0.018681,-0.010938,-0.015555,0.027699,0.003574,-0.028775,-0.016356,0.019511,-0.032477,-0.023295,-0.017859,0.033503,0.016972,0.010892,-0.02246,0.003934,-0.000867,-0.015892,-0.016861,-0.023719,-0.032804,0.008129,-0.017161,-0.0259,-0.011944,0.021397,-0.000428,0.013901,-0.00341,-0.00177,-0.031697,0.023191,0.007591,0.032708,0.03505,0.027529,0.026013,-0.006102,-0.000767,-0.027519,0.021831,-0.013968,0.009364,-0.010402,0.003433,-0.002685,0.013757,-0.005081,0.034059,-0.01589,0.027467,-0.020139,-0.003602,-0.023803,-0.022986,-0.028147,-0.000982,-0.021977,0.010723,0.013,0.022521,0.015539,0.020535,0.013862,-0.007449,-0.00998,0.019327,0.018362,0.013795,-0.017922,0.013884,-0.019483,-0.006078,-0.014489,-0.026625,0.027823,0.032196,0.028168,0.024669,-0.016313,-0.031136,0.010222,0.008426,-0.004848,0.027053,0.015489,0.015553,0.040086,0.029648,-0.015041,0.01087,-0.018771,0.007112,0.001942,-0.032174,0.004305,0.018234,-0.022992,-0.021944,-0.009198,0.007957,0.022575,-0.002904,-0.002958,-0.008979,-0.018813,-0.019734,0.019714,-0.017678,-0.004165,0.020855,-0.005827,0.004852,-0.022614,0.016184,0.007871,0.014583,0.023066,0.001276,-0.015507,0.028717,-0.010682,-0.004801,0.015357,-0.023425,0.002073,-0.013114,0.03002,-0.013858,-0.006468,-0.028387,0.009968,-0.024182,0.025591,-0.015969,-0.014518,0.014383,-0.000502,0.014412,-0.034473,0.001205,-0.007138,0.034484,-0.008329,-0.02247,-0.020287,0.020905]],"classifierBias":[-0.011042,0.000841]},"mp_invasion":{"positiveClass":"AGC","negativeClass":"EGC","classifierWeight":[[0.032507,-0.022532,0.014636,0.014188,0.002986,-0.012529,0.01241,0.00805,0.004648,0.026459,0.026657,-0.003391,-0.005936,0.024901,-0.007592,0.032515,0.022184,0.004338,0.015591,0.032066,-0.023172,-0.018356,0.022341,-0.025096,0.024167,0.023176,-0.029558,0.00903,-0.001672,-0.014915,-0.002425,-0.006062,0.008443,-0.010096,-0.034368,0.016216,-0.016346,0.008694,-0.010831,0.012847,-0.01031,-0.009184,-0.006994,-0.025468,-0.027122,0.019623,-0.006458,-0.018873,0.005715,0.010113,-0.000607,0.011208,-0.009619,-0.001,-0.007864,-0.029941,-0.031846,0.026663,-0.019574,0.011502,-0.007941,-0.012167,-0.020195,0.0056,-0.008613,-0.022487,-0.000733,-0.016906,-0.013815,0.0156,-0.000686,-0.020633,0.027998,0.007929,-0.013517,-0.002161,0.021748,-0.035014,0.023552,-0.017439,-0.014756,-0.019689,-0.017685,-0.028323,0.005121,-0.026632,-0.004197,-0.012402,-0.027445,0.007422,0.016025,0.019097,0.021859,-0.020869,0.014354,0.002994,0.016574,0.040117,0.02449,-0.024934,0.024047,0.023177,0.031288,0.011092,-0.013365,-0.026037,-0.01847,-0.022724,-0.002959,0.010594,0.01224,-0.019849,-0.003082,-0.00447,0.01795,0.024079,0.011586,-0.006114,-0.00173,0.025801,-0.00645,-0.004642,-0.014268,-0.0154,-0.007285,-0.025559,0.016606,-0.034768,-0.020259,0.019021,-0.011141,0.030869,-0.004352,-0.038928,0.012391,-0.035869,-0.002039,0.01428,-0.023911,-0.015664,-0.021719,0.009496,-0.028531,-0.002554,-0.018611,0.023933,0.005511,-0.007929,0.02286,-0.003418,-0.017125,0.003952,-0.005207,-0.027956,0.004487,0.020205,-0.016194,0.007708,-0.01273,-0.026691,0.014521,0.003012,0.025633,-0.014659,-0.022299,0.013941,-0.005031,-0.005597,-0.018031,0.015124,-0.030627,0.009167,0.005228,-0.003118,0.024376,-0.004001,0.015901,0.021922,0.019311,-0.011445,-0.009322,-0.003213,0.009292,-0.001614,0.000446,-0.005875,-0.00946,-0.024375,0.019473,0.016563,-0.011678,-0.022343,0.007436,0.011329,-0.029223,-0.015162,-0.03276,0.003416,-0.008958,0.014125,-0.011548,-0.025262,0.032288,-0.040551,0.00798,0.016141,-0.004653,0.005192,0.013091,0.030705,0.000259,-0.034699,-0.004569,-0.006495,-0.012045,-0.019394,0.027225,-0.027126,0.019029,-0.008194,0.012358,0.002892,-0.004946,-0.019313,-0.022147,0.003203,-0.027126,-0.012758,-0.020971,0.005016,0.016034,-0.02604,-0.000191,-0.001239,-0.017628,-0.006778,0.033615,0.009483,-0.011313,-0.023565,0.002486,-0.009692,0.019592,-0.015839,-0.009052,-0.019265,0.022685,-0.020808,0.001699,-0.003098,-0.005818,-0.011837,0.000927,-0.012167,0.011047,0.026617,0.017744,-0.007524,-0.002411,0.01497,-0.033103,-0.005398,0.025425,-0.002604,-0.017454,-0.003221,-0.009534,0.03468,-0.010248,0.009482,0.001422,-0.018074,-0.007154,-0.009692,-0.000555,0.005145,-0.013605,0.034397,-0.033909,0.002705,-0.000357,0.020158,0.009413,-0.010755,-0.009506,0.018503,-0.024824,-0.024809,-0.021514,-0.001556,-0.020163,-0.002949,0.006907,0.00055,0.009298,0.014095,-0.007134,0.002129,0.012444,0.014881,-0.008038,-0.023473,0.023044,0.018373,-0.004588,-0.015195,0.013764,0.023419,-0.007147,-0.014929,-0.020696,-0.016274,0.020178,0.017192,-0.000545,0.003587,0.014487,-0.006288,-0.026537,0.025936,-0.031275,0.007241,-0.016777,-0.017101,-0.006919,-0.001974,0.002411,0.00427,0.004795,0.020968,-0.01866,0.028325,0.005982,0.007392,0.002247,0.023073,-0.028884,-0.008252,-0.007246,0.006208,-0.004543,-0.013428,0.012653,0.005292,0.031554,-0.000124,-0.032054,-0.016916,-0.029651,-0.019476,0.032307,0.018258,-0.00991,0.018239,-0.000484,-0.033159,-0.025465,0.013641,-0.010586,-0.008757,0.023645,-0.020227,0.029221,0.001923,-0.01819,-0.024534,0.01078,0.028674,-0.011702,0.005352,-0.018587,-0.010782,-0.015659,0.006693,0.029311,0.027808,-0.022773,0.021583,0.009096,-0.01113,-0.028788,-0.029762,0.02442,0.006087,0.008233,-0.025026,-0.000918,0.016861,0.007553,-0.005703,-0.016214,0.015659,-0.011339,-0.028941,0.018193,-0.000692,-0.024659,-0.019621,0.003353,0.019849,0.028318,0.019194,0.01344,0.023487,0.014416,-0.001762,0.013887,0.021632,0.019836,0.001698,0.015059,0.0218,-0.025436,0.010643,-0.014013,0.019689,0.00024,-0.028255,-0.025139,-0.018336,0.003736,-0.007602,0.010082,0.008026,-0.009523,0.027605,-0.021047,-0.002317,0.010521,0.01533,-0.013799,-0.009579,0.019684,-0.024374,-0.016646,0.030765,-0.031121,-0.015963,0.025938,0.010691,-0.016677,-0.014662,-0.001761,-0.003378,-0.016009,-0.004203,0.014394,0.033575,0.002393,-0.001256,0.027678,0.019857,-0.000277,0.038317,0.014727,0.028787,0.003157,-0.010979,0.005923,-0.003729,-0.017379,0.0242,0.028425,0.024705,-0.017537,-0.007924,0.030174,-0.032406,-0.008991,-0.026527,0.010619,0.007497,0.013974,-0.009781,-0.028367,-0.017041,-0.021454,-0.019405,0.009356,0.026716,-0.022495,-0.004944,-0.012113,-0.006655,-0.00725,-0.00498,-0.02029,-0.006034,0.013809,0.003002,-0.030524,-0.004471,-0.009897,-0.008491,0.00813,-0.002081,-0.001974,-0.005016,-0.018494,-0.000696,-0.000446,-0.015355,0.016117,0.009943,0.024752,-0.01322,0.002056,-0.027784,0.03007,0.023943,0.020719,0.008012,0.018346,0.018495,-0.016284,0.019931,-0.011805,0.012802,0.005967,0.011881,-0.02409,0.032087,-0.003288,-0.01741,0.004738,0.010086,-0.024007,0.0247,-0.009129,0.031215,-0.009252,0.004621,-0.012499,0.006069,0.029827,-0.016183,0.011346,-0.021339,-0.023949,0.002854,0.027342,0.027546,0.015426,0.002143,-0.006824,0.008348,0.001611,-0.01707,0.010616,-0.009859,-0.004509,-0.030903,0.016389,-0.013126,-0.011062,0.012513,-0.005858,-0.005372,-0.002476,0.0167,-0.010747,0.000286,0.021777,-0.013489,0.036026,0.023696,-0.014185,0.012738,0.00765,-0.0116,0.015478,0.020832,-0.015482,-0.013885,0.019497,-0.028319,0.011369,0.020549,0.001276,0.029378,-0.026604,0.004975,0.015964,0.02306,-0.004322,-0.006653,0.015655,0.000519,-0.031259,-0.01526,-0.008672,0.02186,-0.009948,0.009543,0.009017,-0.02767,0.01869,-0.005369,0.00697,-0.035274,-0.025202,0.011606,0.024329,-0.025003,0.02032,0.028069,-0.024847,-0.031541,-0.00375,-0.003951,0.003423,-0.026936,0.006129,-0.008794,-0.004001,0.017332,-0.03052,-0.023039,0.024393,-0.005292,-0.029363,-0.011967,-0.008882,0.002946,-0.000382,0.018737,-0.018127,0.012884,-0.03068,0.00976,-0.014025,-0.000505,-0.036233,0.004417,0.010067,-0.016003,0.032014,0.031064,-0.015695,-0.008245,-0.014577,-0.002415,-0.031085,0.011532,-0.018512,0.012485,0.010244,0.021697,6.4e-05,0.009987,0.002361,0.031652,0.004867,0.025912,0.002067,-0.009876,-0.008934,0.011554,2e-05,-0.028161,0.001612,-0.025443,-0.01509,-0.019819,0.029651,0.01727,0.011993,-0.01474,0.022789,0.026111,0.005068,0.023529,0.008923,0.010173,0.037064,-0.027796,-0.014764,0.036012,-0.000429,0.010956,-0.01389,-0.019276,-0.005002,-0.027984,0.007481,0.014662,0.030026,-0.003095,-0.009336,-0.00709,0.008007,-0.001124,0.005187,-0.018185,0.011815,-0.0024,0.032547,-0.030052,-0.02097,-0.009963,-0.021482,-0.001733,-0.011778,0.03078,-0.012823,-0.017106,0.011989,0.030148,0.003917,-0.015663,-0.016814,-0.034742,-0.013638,-0.021464,-0.012181,0.027062,-0.017078,-0.012727,0.009785,0.011575,0.003576,0.015998,0.008537,0.015987,-0.00619,-0.027031,-0.005231,-0.012802,0.025804,0.032219,-0.001149,0.004605,-0.02461,0.011128,0.027982,-0.015438,-0.028687,-0.007195,-0.004172,0.025541,0.018202,0.009853,0.012228,-0.006476,-0.029988,-0.003751,0.026804,0.011202,-0.023198,0.004829,-0.027894,0.004213,-0.010164,-0.015443,0.016364,0.019962,0.018402,0.022688,0.012424,-0.016713,-0.006267,0.01149,0.012975,0.015974,0.022137,0.024783,0.025315,0.009366,-0.007265,-0.024731,0.011798,-0.024622,-0.001167,0.019847,0.028768,0.024226,0.007415,-0.014454,0.00698,0.012074,0.032395,-0.011157,0.010709,-0.008197,-0.019511,-0.012113,-0.028452,-0.003072,0.002169,0.01111,-0.02082,0.022676,0.022858,0.003691,0.022887,0.009906,-0.017037,0.026157,-0.006982,-0.024366,0.021688,0.002694,-0.018438,0.032869,-0.026573,-0.015755,-0.00893,-0.00325,0.026249,0.02074,-0.007663,-0.015825,-0.010719,0.02115,-0.002216,0.028077,0.016502,0.00914,0.006621,-0.002739,-0.020992,0.002481,0.004452,-0.025443,0.017879,0.008418,0.020441,-0.027746,-0.021529,0.011386,0.016839,-0.00134,-0.000108,0.004715,0.021438,-0.017392,0.003902,-0.005853,0.001268,0.000989,0.0152,0.002498,0.015811,-0.00966,-0.007075,-0.001328,-0.012849,-0.002641,0.004491,0.026661,-0.005314,-0.000842,0.012993,-0.016907,0.020395,0.018316,0.027963,-0.013716,-0.006803,0.010912,-0.021461,0.008696,0.016118,-0.020498,-0.022372,0.012899,-0.002775,-0.014296,-0.01929,0.016167,-0.007139,0.015904,-0.017163,-0.020701,-0.007849,-0.019192,-0.0343,0.021588,0.027489,0.027394,-0.012748,-0.009638,0.029273,0.013146,-0.012865,0.010409,0.023357,-0.023333,-0.009761,0.013808,0.00655,-0.009284,0.018623,0.009868,0.020152,0.030233,0.013664,0.034602,-0.024609,-0.002852,0.0066,-0.024729,0.021506,0.014428,-0.026318,-0.008704,0.014134,-0.007441,-0.015138,0.007245,-0.023656,-0.019217,0.008749,-0.013144,-0.006617,-0.004889,0.013167,-0.01705,0.021249,-0.013339,0.003802,0.004112,0.015719,0.022547,-0.015243,-0.022784,-0.014956,-0.002207,0.003681,-0.019875,-0.003701,-0.031578,0.017335,-0.001472,-0.023628,-0.023737,-0.002185,0.037836,-0.016684,-0.019483,-0.011649,0.003299,-0.016751,0.015375,-0.010937,0.02216,0.013368,-0.025188,-0.026382,-0.018982,0.013966,-0.012198,0.000193,0.029174,-0.01119,-0.023278,0.021044,0.011488,-0.025305,0.011858,0.022697,0.020241,-0.009298,0.009787,0.009454,0.006071,-0.010693,0.003735,-0.007994,-0.025271,0.020671,0.027763,-0.012587,0.018437,0.027503,0.010209,0.030233,0.022583,0.033014,0.012958,-0.009378,0.006503,0.002627,0.006144,0.026035,-0.022219,0.029753,0.020776,-0.012331,0.024034,-0.015599,-0.016032,0.02192,0.022433,-0.021874,0.026343,-0.024311,0.00522,0.022708,0.007185,0.028224,-0.01241,-0.006569,0.010128,-0.021605,-0.031981,0.033648,-0.030178,-0.01818,0.021522,0.017454,0.008022,0.012955,0.000768,0.023917,0.021761,-0.021005,-0.018782,0.027256,0.019695,0.0102,0.031502,0.03089,0.000689],[0.008245,0.027503,-0.01334,0.016571,-0.013539,-0.029679,0.007196,0.00647,0.010018,-0.033544,-0.013779,-0.015067,-0.030572,0.008045,-0.018122,0.01315,-0.012306,-0.018147,6.3e-05,0.016989,0.028587,-0.030885,-0.007182,0.016765,0.008036,0.007415,0.036446,-0.025354,-0.021134,0.023187,0.006519,0.00029,0.003354,0.014563,-0.001193,-0.020841,0.015206,-0.015643,-0.017536,-0.003664,-0.03772,-0.028432,0.034071,0.014489,-0.011289,0.018142,0.010649,0.00709,-0.016767,0.03401,-0.005848,-0.003386,0.006055,-0.02341,-0.018879,0.019694,0.011847,-0.013065,0.018633,0.011478,-0.025199,-0.028726,-0.016438,0.008876,-0.0307,0.027979,0.027525,-0.006169,0.00245,0.010805,0.011976,0.027265,-0.025599,0.010578,0.002458,-0.033439,0.022196,0.013038,0.012346,-0.001197,0.009092,-0.010744,0.017712,-0.013712,-0.017205,0.003138,0.004396,-0.000727,-0.012726,-0.012641,0.019627,-0.022629,-0.031069,0.020856,-0.025805,0.004092,-0.004935,-0.028647,0.016076,0.007942,-0.000495,0.033062,-0.029353,0.033389,-0.005613,-0.0217,-0.000673,-0.030463,-0.010052,-0.010314,-0.016797,-0.012403,0.00757,0.013782,0.005409,-0.00764,0.009512,-0.015235,-0.019145,-0.010796,-0.010103,0.014793,-0.029066,0.016085,0.025309,-0.017904,-0.021851,0.010095,-0.017973,-0.023317,0.038028,-0.016768,-0.022752,0.008141,-0.024598,-0.023264,0.020751,0.006926,0.005985,-0.018749,-0.006312,0.00957,0.011816,0.026144,-0.018896,-0.004506,0.021121,-0.026824,-0.00655,0.006239,-0.014545,-0.010444,-0.018312,0.029531,-0.005088,-0.019466,0.029387,-0.009012,0.027946,-0.02605,0.024221,0.004402,0.001116,0.01944,-0.013197,-0.014016,-0.003612,0.029526,0.014127,-0.021043,-0.021102,-0.023545,-0.02012,0.002409,0.006567,-0.002859,-0.029688,-0.036012,0.013009,-0.000871,0.011698,0.031565,0.028049,0.011033,0.020725,-0.012558,0.022004,0.014135,0.023295,-0.00088,-8e-05,0.020143,0.012991,-0.00992,0.003268,-0.025635,0.004102,0.012693,-0.019755,-0.009326,-0.027237,0.000808,-0.020554,-0.019628,0.017456,0.019783,-0.030166,0.017487,0.03019,-0.022168,0.010717,-0.013167,-0.002865,0.009929,-0.019327,-0.006772,-0.019995,0.028388,-0.03311,0.001858,0.023293,-0.016797,0.007187,-0.000764,0.008757,-0.019669,-0.011506,0.000871,0.027102,-0.027668,-0.014522,0.025416,-0.012805,-0.001328,-0.017716,0.029341,0.015778,0.006648,-0.019739,-0.003556,0.016408,0.008588,-0.004916,-0.018792,0.009896,-0.004599,-0.014597,-0.02807,0.016432,-0.005308,-0.022657,-0.018188,0.024904,-0.005915,0.004398,-0.005316,-0.018378,-0.012304,-0.004408,-0.026019,-0.000189,0.01848,-0.000245,-0.002545,-0.003427,-0.024934,-0.032603,0.004785,-2e-05,0.026089,0.017024,-0.010768,0.012785,0.029874,-0.014017,-0.014848,0.022269,-0.015248,-0.007113,-0.008063,-0.017301,0.01693,0.003353,0.011452,-0.021851,0.028014,-0.002134,0.008091,0.016334,0.006684,-0.004917,0.021766,-0.006637,0.014818,0.01273,0.015407,0.025738,-0.005273,-0.0262,-0.023186,0.029509,0.018652,-0.007979,0.02599,-0.031324,-0.010165,-0.018015,-0.023189,-0.016866,-0.020145,0.009153,-0.019772,0.021705,4.1e-05,0.001851,0.022807,-0.007222,0.015416,-0.006929,0.024166,-0.004076,0.025431,-0.002098,0.024263,0.009561,0.015008,0.018569,-0.013717,-0.019788,0.012686,0.003559,-0.021774,0.01049,0.011448,0.017678,-0.025339,0.024322,-0.023282,-0.034119,-0.027573,0.022321,0.021094,-0.022153,-0.017065,0.015082,-0.003356,0.008529,0.016563,0.003905,0.015399,-0.024343,-0.027407,0.016406,0.001759,-0.009464,-0.006911,-0.004403,-0.017962,0.024896,0.000178,-0.009931,-0.007423,0.026444,-0.012573,0.005266,-0.008791,-0.017303,-0.008416,0.015955,-0.018603,0.01932,-0.00524,-0.021246,-0.013158,0.004349,0.032468,0.025105,0.015269,-0.007571,0.012535,0.026695,0.030835,-0.030381,0.01095,0.002749,-0.019905,-0.032842,0.026036,-0.019589,-0.010459,0.010508,0.015937,0.001865,-0.002394,0.017068,-0.013369,-0.020486,0.00655,-0.018106,-0.006939,0.025624,-0.001217,0.031837,-0.025392,-0.000406,-0.022396,-0.006814,0.024298,0.005021,0.033387,0.013824,-0.029497,0.021178,-0.002159,-0.010888,-0.027203,0.035266,0.020777,-0.010794,-0.029461,0.003096,0.011654,0.009746,-0.022477,0.010596,0.008913,-0.004972,0.020309,0.013677,0.004727,-0.013793,0.000271,0.03368,0.009877,-0.0094,-0.010327,-0.011371,0.018924,-0.005586,-0.035224,-0.024552,0.024178,-0.004679,-0.004864,-0.026446,0.025207,-0.009698,0.024718,-0.017445,0.003646,0.01684,0.018888,0.009248,0.003412,0.018107,-0.028702,-0.025334,-0.009092,-0.01786,0.013704,-0.024634,0.014186,0.009578,0.010058,-0.03583,-0.008645,0.009468,0.019269,-0.023493,-0.00726,0.018783,-0.014819,0.020428,0.045176,0.019205,0.028851,-0.027583,0.004478,0.00989,0.013477,-0.017931,0.010233,0.000422,-0.017561,-0.024793,0.022197,0.00857,-0.004111,0.01932,0.009553,-0.012701,-0.024848,0.00505,-0.009691,0.003646,-0.007084,0.000219,-0.025749,-0.022223,-0.010745,-0.007549,0.00944,-0.019338,-0.003427,-0.001537,-0.001937,0.021182,0.019002,0.029268,-0.029474,-0.010644,-0.008463,0.025091,0.029579,-0.017365,0.003853,0.003056,0.031671,-0.013564,0.010014,0.027325,0.002494,-0.013527,0.025743,0.00148,-0.02278,-0.025781,-0.025704,0.031484,-0.023542,-0.012278,-0.020698,0.028702,-0.0223,0.009609,-0.022639,-0.000458,-0.016243,-0.014985,-0.019502,-0.022244,-0.01679,-0.002246,0.030144,0.020774,-0.005022,0.024843,-0.016093,-0.011547,-0.032161,-0.010979,0.031369,0.003712,0.024374,0.010813,0.011568,-0.015544,0.026507,0.004344,-0.005205,-0.031347,0.011116,0.00719,-0.005257,0.022806,-0.011929,-0.024718,0.018955,-0.016335,-0.018127,-0.00264,-0.010427,-0.03914,0.012435,0.016449,-0.017079,0.008945,-0.002869,0.018884,0.019507,0.020058,-0.022479,0.00701,-0.018552,-0.020877,-0.006144,0.027501,-0.006602,-0.016652,0.010065,0.026185,-0.016966,0.029336,-0.009175,0.009611,-0.008633,0.031576,-0.007501,-0.016271,-0.020659,-0.020813,-0.009424,0.025299,-0.012608,0.002915,-0.032433,-0.008334,0.02914,0.007031,0.017055,-0.02382,0.021743,-0.000361,0.001833,-0.019601,0.018501,-0.005662,0.011981,-0.002156,0.001599,0.029306,0.017689,0.01074,0.00343,0.004319,0.033433,-0.028888,0.02136,-0.007305,0.019185,0.011493,-0.011208,-0.004469,-0.003794,0.016009,-0.005872,-0.015559,0.007225,0.012385,0.023775,0.022869,0.029107,0.031098,-0.011043,0.034158,0.003835,-0.020158,-0.01534,-0.01968,-0.028455,0.022924,0.025875,-0.009151,-0.017291,0.021041,0.005566,0.02077,-0.021213,-0.021758,-0.021002,0.033346,-0.021829,-0.010541,-0.016327,0.01855,0.015563,0.00067,0.007118,-0.02487,-0.015066,-0.02943,-0.011778,-0.024921,-0.01518,0.018942,0.024724,0.009678,-0.018855,-0.008395,-0.007455,-0.015885,0.001605,0.001819,-0.028944,0.033856,-0.002611,-0.027948,-0.028616,0.004184,0.025515,-0.024595,-0.00016,0.014436,-0.002054,-0.013737,0.006557,0.018736,-0.025698,-0.02843,-0.014755,0.024157,-0.018746,0.000433,-0.012516,-0.007039,0.01405,0.022638,0.026253,-0.035724,-0.022656,0.022422,0.004007,-0.022059,-0.021256,-0.022586,-0.029777,0.020027,-0.011525,-0.014969,0.002296,-0.028478,-0.007197,-0.006967,-0.025688,-0.028745,0.03227,0.018806,0.017143,0.027717,0.024144,-0.001103,0.020663,-0.013582,0.006253,-0.000454,0.013097,-0.01898,-0.001394,0.002432,-0.017349,0.008861,0.004596,0.032014,-0.00319,0.029233,0.01008,0.004367,0.006511,0.014579,0.010347,0.028702,-0.026992,0.007504,0.008554,-0.004851,0.02497,0.006185,0.007296,0.008167,-0.021539,0.005231,0.01099,-0.004959,-0.006485,0.014831,0.020176,0.02161,-0.006285,0.010643,0.00608,-0.011879,-0.021038,0.010488,0.013316,0.027556,-2.1e-05,0.019544,-0.021783,-0.032432,0.032859,0.01024,-0.005329,-0.01622,0.005836,-0.031423,0.010621,-0.006601,0.015717,0.005293,-0.009916,0.029643,-1.5e-05,0.001912,-0.028483,0.016585,-0.024231,-0.022069,0.003194,-0.021156,-0.017023,-0.003914,0.006197,-0.009466,0.018772,0.001221,0.013678,-0.018441,0.008789,-0.013679,0.001433,-0.031916,0.011817,0.018178,0.005787,0.025834,0.026813,-0.025319,0.007251,-0.023759,0.028252,0.011904,0.011913,0.019195,-0.027326,0.032188,-0.010361,0.023681,0.031573,-0.019484,-0.016517,0.034583,-0.007011,-0.030587,-0.022369,0.000122,-0.020028,0.032189,-0.016677,0.023602,-0.010295,0.009803,-0.014192,-0.014559,0.029187,0.031553,-0.013628,0.033736,-0.01758,-0.018278,0.017659,-0.014408,0.003823,0.031679,0.016102,-0.008929,-0.013922,0.016531,-0.035466,-0.024457,-0.021854,-0.03162,0.027386,0.006954,0.009639,-0.014558,-0.016776,0.028955,-0.012046,-0.015772,0.029256,-0.00051,-0.007956,-0.018809,-0.004229,0.008155,-0.007609,-0.004665,0.001305,-0.023549,0.017194,0.027734,-0.022534,0.030437,0.018713,-0.022466,-0.00784,0.019081,0.029136,-0.022793,-0.033381,-0.034971,-0.020474,-0.007075,0.001753,0.009598,-0.007089,-0.013753,-0.006944,0.002214,0.010987,-0.030983,-0.029785,-0.014019,-0.008974,0.027478,-0.002297,0.016957,-0.011548,0.017123,-0.009457,0.00103,-0.011258,0.027326,0.008359,-0.02212,-0.012777,0.005208,0.021132,-0.02061,-0.007765,-0.030439,-0.006072,-0.032472,-0.01779,-0.007853,0.031276,0.006596,0.010571,0.013353,0.017835,0.014761,0.00275,0.023261,0.010102,0.029552,-0.000936,-0.028574,0.019005,-0.013406,0.012552,0.006125,0.006787,0.005453,-0.026679,-0.009845,-0.018834,-0.017087,-0.01104,-0.024539,-0.035182,0.020538,-0.013016,-0.007381,0.018772,-0.034121,0.00253,-0.024026,0.019525,0.002837,0.007697,0.02514,0.016443,0.004317,-0.001482,0.03928,-0.007329,-0.022785,0.004316,-0.018251,0.017581,-0.019762,-0.004989,0.019929,0.002353,-0.024933,0.0018,-0.031414,0.005613,-0.000535,-0.0035,-0.012104,0.024529,0.032931,0.039055,-0.003454,-0.003884,-0.016914,-0.012205,0.016403,-0.002923,-0.01682,0.025371,0.026599,0.00536,-0.026979,-0.012227,-0.002298,-0.003194,0.029353,-0.00128,-0.026096,-0.026388,-0.027455,-0.000318,-0.030174,0.015686,0.000662,-0.018325,0.013733,0.01835,-0.003047,0.019531,0.011202,-0.027808,-0.025651,0.013018,-0.019869,0.026938,0.014313,-0.016215,0.029248,-0.025097,-0.031456,0.018165]],"classifierBias":[0.007167,-0.009952]}},"cases":{"cancer_detection_non_cancer_a":{"taskId":"cancer_detection","frames":{"cancer_detection_non_cancer_a_frame_000":{"score":-0.45489808917045593,"feature":[-0.522338,0.476285,1.180386,-1.24985,-0.532774,-1.488269,0.912004,0.495976,0.415257,-0.320876,0.39396,1.702734,-0.330927,-2.310382,1.02053,1.117268,1.133836,-0.003047,-0.069241,-1.747247,0.109957,0.179271,-0.176437,-0.797416,-1.236127,0.021833,1.04305,-0.324207,0.719273,0.4919,1.223061,-0.639762,-0.381048,-0.944312,-1.273934,-0.650611,0.223371,0.820804,-0.383316,0.015425,-1.528333,-0.826446,-0.027564,-0.576992,2.628375,0.238832,-0.716657,1.418259,0.877719,-0.943094,-0.806049,-0.290292,-1.631445,-0.389934,-0.986955,-1.395673,2.903733,0.64439,0.184321,1.113453,-0.717635,1.345922,0.452789,0.571451,-0.627587,0.230495,-1.223206,-0.329788,0.039436,-0.771209,0.807086,0.884989,0.418173,-0.578507,-0.097482,1.158533,-2.05742,0.102149,-0.310101,-0.521981,0.722849,0.674134,-1.055304,1.888036,-0.959164,0.308187,1.438092,1.828153,-0.024706,0.353012,1.357617,-0.97164,-0.431958,0.514175,-1.174012,0.972033,-0.06554,-0.558984,-0.438531,0.615786,-1.406735,1.753808,-1.428325,0.308725,-1.173966,0.398901,-0.095887,-0.442204,1.776332,0.488018,-0.342926,0.684968,-0.794923,-0.187154,-0.351972,-0.979068,-0.439232,-0.879461,0.987568,-0.373298,0.698367,-1.331134,1.60918,-0.944618,1.451614,0.439357,-0.035042,-1.045123,-0.396369,-1.273458,-0.221358,1.495886,0.919331,-1.143757,0.142146,3.222136,0.520061,-0.459574,-0.217317,-0.689007,0.196297,0.351611,-2.202345,-1.450085,-0.513528,-0.214342,0.137282,0.527177,-0.354956,-1.071339,1.456717,0.189842,0.450089,-0.294388,1.609136,-0.221037,-0.326082,1.374363,1.90567,0.501705,-1.637613,-1.956767,0.571647,-1.165098,0.853589,-1.029611,-0.87051,0.923015,0.38662,0.021287,0.141405,-0.385833,0.530815,0.759939,-0.680342,0.342637,-0.969913,0.869702,-0.223083,-0.020947,-0.679557,-0.872204,0.228546,-0.489248,0.438261,0.800782,-1.658825,-0.619107,1.021595,0.375119,-0.727818,0.220878,-2.259909,-1.219145,1.106818,-2.141489,-1.839984,0.826738,1.209894,1.043426,-1.283726,0.655927,-0.00509,-0.940653,-0.978778,1.140693,1.214744,1.142858,0.592734,0.467594,-0.340867,-0.812566,-1.105026,-0.393535,2.06289,-0.132456,0.590213,-1.013806,-0.54586,-0.955218,-0.353219,2.441953,-1.351609,0.24466,0.143081,-1.451981,0.442332,2.263484,-0.752927,0.403912,-1.022641,0.150376,-0.535119,1.27106,0.139841,1.353834,-0.033263,-0.59028,-0.75165,0.180463,-1.353997,-2.157346,0.042694,0.264197,-0.396569,0.003594,0.903041,0.311239,-0.042193,-1.550093,-0.390491,-0.244543,0.842437,-0.560661,0.100219,-1.491579,-0.35583,-0.836623,0.747455,-0.187506,-0.062602,-0.822858,-0.193853,-1.185926,0.443313,0.267483,-0.319043,-0.581195,-0.496931,0.07195,-0.082839,0.789967,1.401227,0.675033,-1.333189,-1.504861,-0.396352,1.093906,0.350073,-0.792476,-0.704967,1.191526,1.40521,-0.008362,-0.097865,-0.187835,-0.556916,-0.28509,-0.700503,-1.138961,-0.615149,1.241953,-0.45624,-1.137756,1.158422,-1.558951,-0.267363,0.715908,1.993369,0.287503,-0.47096,0.812571,-0.085717,1.032063,0.066706,-0.166474,-0.591899,1.508527,-0.349665,-2.671777,-0.662529,0.456299,1.631373,1.234248,-0.106682,-2.051841,-1.987114,-1.555191,-0.3765,0.686045,-0.331443,-0.874743,0.87942,-0.741573,-0.169557,2.020074,-1.032695,0.281948,3.372064,-0.625379,-1.621317,2.895952,-0.781297,-0.104021,-0.601471,-1.110487,-0.689765,-2.32173,1.018693,0.052511,-1.087782,-0.482527,1.05388,-0.196669,-0.025453,-0.015239,-1.544022,0.516768,1.013573,0.272836,-0.705857,0.44294,0.399964,0.243057,0.318347,0.202175,0.311424,0.762972,1.270049,-1.52751,-1.580549,-1.386358,-0.224613,-1.366091,-0.597216,1.025025,0.190982,0.898229,-0.298144,-0.713297,1.104072,0.060049,1.015332,0.136635,-0.932325,-1.418189,0.275096,-0.16291,0.543328,1.679459,-1.261152,-0.498277,-0.917813,0.398914,-0.196823,-0.653259,-0.038776,1.162388,-0.66299,-2.369069,-0.676291,-0.428432,1.056991,-0.576546,-1.932937,1.600661,-0.13838,-1.293485,-0.198441,-0.678057,-1.607108,-0.376201,-1.928932,-0.230205,-0.198387,-0.383605,0.357938,0.857454,-0.061524,-1.0554,-0.373638,-1.220703,-1.428251,-1.480649,1.426264,-1.027731,0.166951,0.499871,-1.96152,0.015237,0.284165,1.512349,-0.401912,-1.175945,0.548768,-0.169858,1.818205,0.500889,-0.064734,-1.208713,1.205543,-0.679859,1.628091,2.559995,0.394053,0.613562,0.368245,1.24242,-1.568481,-0.6707,0.933186,-0.636955,-1.98676,-1.489199,-0.311128,1.925736,-1.074461,-0.113816,0.045607,0.218161,0.192559,-0.953592,0.136342,0.608936,-0.773989,-0.541775,-0.877085,0.762854,0.581542,1.853089,0.929007,-0.782082,0.9168,-0.738871,-0.142428,1.028411,-0.245748,0.614769,-1.299493,-1.392169,-0.14277,-0.934095,-0.337267,0.196746,-0.939605,-0.625284,-1.854515,-1.098826,-2.683544,1.069839,0.123585,1.291782,-1.286397,-0.919217,0.184204,3.267242,0.450501,0.889403,2.048871,0.771037,1.424067,-0.538893,0.612867,1.262917,2.624274,1.77008,-0.821993,-0.932062,-0.495984,-0.577132,-0.491766,0.054939,0.455075,-0.115333,0.247534,-1.347072,-0.762068,-0.152942,0.394897,0.545476,-0.744108,1.288122,-0.810276,-0.544644,0.32305,-0.125195,0.075083,-0.487269,0.40126,1.682654,1.737998,-1.044865,0.331265,-1.070884,-0.063699,1.155981,0.805537,-0.093406,1.502672,-1.285772,-1.654836,0.816682,-0.294869,-0.394017,0.380839,-1.038568,-0.001755,-1.335052,0.047133,-0.525515,-0.11269,0.6918,-0.024297,2.765385,0.655922,-0.076439,0.325924,-1.120834,-1.596788,0.588202,0.221066,-0.436238,1.242581,-1.046216,0.81501,1.361308,-0.471844,-0.232065,0.683433,-0.418951,1.365879,-0.352746,-0.65059,-0.376906,-0.207318,-0.079225,-2.715621,-1.021417,0.51868,0.860087,0.591286,-1.018814,-0.669775,0.616604,-0.15806,0.209332,0.279622,-0.154722,-1.427068,-0.813843,1.431556,-0.155276,-0.503892,1.027983,0.691799,-0.213987,0.178559,-0.275657,-0.023109,-1.659539,2.701341,1.526014,-1.359276,0.302433,-1.263395,-0.884504,-0.207121,-0.740163,-0.527384,-0.901931,0.224593,-0.089475,0.688424,-0.487455,0.455587,0.172303,-1.382484,-0.521645,-0.509937,0.843436,0.929875,-0.557762,-1.764552,-0.623551,1.177775,1.252352,-0.22113,-1.704743,0.11232,-0.764988,0.269889,-0.068747,0.524522,-1.086159,0.070668,-0.42404,0.207483,1.392951,-0.779559,-1.497828,0.200898,-1.005084,1.48799,-0.559599,-2.072836,0.691678,-0.492827,1.168166,0.956549,2.013589,-0.640601,2.157098,-0.77867,-0.539145,0.157885,0.907926,1.488263,1.494965,-0.922198,2.125593,0.075289,0.445503,0.397431,0.925369,-0.745155,-1.322118,1.195979,0.20599,1.668034,1.102661,0.664286,1.007134,-0.081856,-0.011621,-1.286778,0.268973,0.041043,1.283244,1.23989,-0.941647,-0.00319,-2.146108,0.005336,-0.352397,0.186319,0.687722,-0.314026,0.205197,0.088361,0.599018,-0.769018,0.745606,-3.27465,0.325196,-0.301925,-1.132312,2.55651,-0.657919,-0.349307,2.083278,1.598202,-0.709537,-0.677437,1.174083,-0.012089,-0.231719,0.325581,0.545169,0.480394,-0.549482,0.40523,-1.026991,0.504436,-2.089664,-0.999126,1.76286,1.189005,-1.936149,-0.499604,0.671457,-1.463676,0.125535,0.213901,-1.374716,-0.792472,-0.106679,0.422237,0.671339,-1.644253,0.995552,-0.123805,-0.150444,-1.152261,-0.281217,1.004847,0.227468,-0.250879,0.991381,-1.018484,-0.908838,0.216031,0.445894,1.530637,0.562769,0.251363,0.279069,-0.741067,-0.292727,0.388723,1.250858,0.501656,0.333256,0.44594,0.139275,0.88316,0.139828,-0.999738,-0.378457,-0.383642,-0.100448,0.383987,-0.121982,-0.452268,-1.685308,2.105188,-1.152507,-1.84377,1.526561,0.679441,1.10373,1.025714,0.576237,1.607366,-0.102285,-0.750564,-0.555223,-0.636334,0.232469,-0.338218,-0.412333,0.156619,0.940846,0.848794,0.710714,0.203953,-0.470542,0.154309,-0.07613,-1.037019,0.643388,0.504244,0.478989,0.37702,-0.757275,1.432266,-1.27136,-0.604644,0.671049,-2.311296,0.724017,1.48827,0.14168,1.706533,1.873207,0.552715,0.567681,0.390664,-1.080555,0.543153,0.863221,1.812933,-0.493224,-0.294469,0.616273,1.319396,-0.953575,-0.041426,-1.894599,1.717558,-0.063747,1.447142,-0.97211,-1.209581,-0.090359,-0.767608,-1.586298,-0.990783,0.358727,1.069669,0.675537,0.325693,1.486904,-1.568152,1.503506,0.384948,-0.863191,0.099894,-1.042173,0.662689,-1.024037,1.315094,-0.023007,-1.644832,0.047341,2.076538,0.234234,0.03872,-0.115991,-0.214895,0.654199,-0.901694,-0.51612,0.873083,1.624404,1.209006,1.116774,0.689937,-0.113747,0.971497,-0.841886,0.37203,-0.174725,-0.292554,-0.605759,0.254013,0.600258,0.668217,0.382138,-0.23444,0.368964,-0.065797,0.253874,-0.432795,0.480567,-0.364153,-2.87712,-1.064106,0.169819,-0.639069,1.718187,0.705252,-0.000807,0.425841,-0.955901,0.334579,1.206802,-0.234293,0.133632,0.931078,1.165786,1.061209,0.440211,0.020283,0.691929,-0.609822,0.875686,-0.482171,1.533779,2.309058,0.218633,1.144708,-0.783641,1.121981,-0.588398,0.745322,0.36448,-1.157908,0.819273,0.551548,0.417523,-0.557422,-2.348191,0.198634,-1.083112,-0.999163,1.443752,-0.247956,-0.296481,1.911872,-1.194149,-0.259111,0.258131,-1.409359,-0.28578,1.221226,0.334218,-0.724922,1.953687,-0.854892,-1.028455,1.12876,-0.18126,-0.069948,0.748523,-1.148669,-0.107761,-0.324949,0.551844,-1.469088,0.763075,-0.546615,2.035402,-0.136369,-0.992063,-0.261703,-0.54025,-0.22516,-1.068026,0.794914,-0.109202,-0.179241,0.649413,2.072735,1.359098,-0.621133,-0.018135,-0.888349,-0.488426,0.106601,1.569286,-0.755903,-0.027601,0.808365,1.345812,-0.629414,-0.373522,-0.168526,0.780943,-2.227967,0.965631,0.698147,-0.771828,0.082131,2.30369,-0.159092,0.557676,-0.039679,-1.171619,1.349989,-0.181002,-0.277579,1.082286,-0.669617,-0.964232,-0.825002,0.059463,1.652855,-0.475637,-0.799438,-0.191938,-1.052122,1.254259,-0.102073,-2.044629,0.265931,1.094442,0.431965,1.550775,0.855073,-1.812045,0.553941,0.05736,0.446922,-0.286804,-0.741264,-0.349892,-0.320281,-0.98937,0.731237,-0.598366,-0.185843,0.722183,-0.211332,-0.194309,0.068655,-0.188125,-0.186392,0.475326,-0.380231,-0.097554,0.033642,-1.036494,0.793144,0.941005,-0.483902,0.457165,0.922329,-0.625608,-1.209675,-0.849002,-1.113849,-0.393659,-0.336311,1.408642]},"cancer_detection_non_cancer_a_frame_001":{"score":-0.4623446762561798,"feature":[0.293017,-0.969922,0.307864,-0.028182,-1.404907,-0.705571,-2.314363,-0.197956,1.549914,0.284066,-0.143726,-1.286439,1.019133,0.351035,1.061584,0.863407,-0.622416,-0.20394,-0.535135,1.862264,-0.931186,0.76885,1.736952,-0.56656,0.395775,1.27229,1.254874,0.230435,1.323044,-0.576743,-1.681973,0.210854,-0.134353,1.259691,0.357431,-1.194376,-0.036298,-0.150332,-0.543472,-0.858875,-0.924491,0.265035,-0.911502,-0.286679,1.392272,1.022619,-0.031423,0.193183,-0.86054,-0.011822,-0.509827,1.553903,1.17304,-0.139166,-0.95251,-0.072492,0.608804,-0.36118,-1.506221,-0.622478,0.56344,1.455865,1.759468,-0.887874,-0.319011,-0.832591,-0.752689,0.248723,-1.243882,-1.000594,-1.515918,0.602091,-0.240012,-0.72712,-0.391076,2.330303,0.578662,-0.646952,-0.536258,-0.263978,1.449705,-1.106158,0.599252,-0.824063,0.195596,-2.217753,0.666413,-0.003238,-0.361044,0.911634,1.754407,2.409813,-1.023448,-0.028197,0.117979,-0.51409,-0.378747,0.61553,0.387493,-1.921381,-0.770931,2.419305,-0.01037,1.105625,0.882584,-0.526593,-0.02704,2.563489,-1.928787,0.814893,0.766196,1.132509,-1.42474,-0.506118,-1.847249,-0.11473,0.132441,-0.86769,0.103015,0.507501,-0.111932,-0.490846,-0.355902,0.12632,1.750373,-0.738727,1.429175,0.123576,0.410784,-0.286262,0.053421,0.216493,0.791385,-1.228053,0.691449,2.126329,-0.150493,0.950795,0.768113,0.692304,0.460446,-0.423424,1.717997,-1.415898,0.865227,1.443077,1.697306,1.03895,0.417986,-0.842588,-0.988897,0.219871,0.074506,-0.603634,-0.59683,1.253192,-0.762437,0.054119,1.56076,0.366131,0.731792,-0.865204,-0.656828,-1.252946,1.273921,-0.514247,-0.173702,0.371566,-0.225176,-0.72303,0.460123,-1.163118,0.513276,0.293744,-1.374964,-2.05509,-0.750411,-0.582626,0.618641,-0.655158,-0.264504,-0.257389,0.857815,0.361299,-0.639232,-1.160682,-2.281244,-0.562882,0.546457,0.242905,-0.44606,-0.68883,0.519842,0.066828,-0.335801,1.061733,0.080043,0.108776,0.787544,-0.316876,-0.994747,1.328551,-1.207577,-1.005984,-0.213577,-0.328697,-1.664045,-0.531743,-0.692684,-1.071404,-0.597209,0.369277,-1.854136,-1.059884,0.329557,-2.040129,0.048049,0.438939,-0.445386,-0.188233,-0.44462,-1.463353,0.028146,1.896125,0.006699,-0.324216,-0.233618,-0.705359,1.058042,-0.353299,-2.580503,1.022492,0.792493,1.290598,-0.29486,0.033223,-0.545901,0.990666,0.70066,0.071513,-1.598774,-0.244098,0.74831,0.293751,-0.021688,0.492973,-1.266593,-0.670055,-0.297406,0.031545,-1.009603,-0.246503,-0.850355,-1.147409,0.149783,0.099895,0.784808,-0.790659,-0.717981,-0.919069,0.072903,1.212263,1.62703,-0.864765,1.568187,0.770186,1.178447,-0.428139,0.503319,0.440195,-0.105908,-0.983582,-1.569242,1.95751,0.172292,0.877941,-0.493418,0.962331,-0.756525,1.758748,0.001937,-0.184685,-2.123463,-0.360369,1.12938,-0.504096,-1.474671,-0.670105,-0.027923,-0.442629,-0.463439,0.589609,-1.574623,-1.752765,-1.330061,-0.974686,-0.973307,1.587538,0.541397,-0.171681,-0.323825,-0.250574,0.546289,0.743957,-1.235782,0.540106,-1.546072,0.756513,-0.53507,-0.826052,-1.554473,1.567189,0.615998,0.294949,-0.396682,0.292305,1.054992,0.144281,0.488988,-0.473844,0.19948,-1.064519,-0.722469,-0.408044,-0.831944,1.807397,1.373383,0.479441,2.66933,0.313959,-1.010118,-0.269653,-1.666829,1.112576,-0.413648,0.649333,-0.201844,-1.041994,0.766461,-0.604269,0.412127,-2.093601,0.554773,0.626034,0.227742,0.152025,-1.13527,-4.03298,0.20472,-0.233025,0.041098,-0.116947,0.267442,-0.135286,0.341606,0.844082,-0.346836,-0.288308,0.709402,-2.043335,-0.122405,0.860161,0.394931,-0.974947,-1.935848,1.52519,1.33472,1.520256,0.276604,-0.001908,0.030809,0.139976,-0.777541,1.625154,0.335012,-1.05442,0.424175,0.227729,-0.651682,0.6385,0.373306,-0.596406,-0.715204,-1.802415,1.207219,-0.808665,-0.100408,1.270839,-2.377318,-1.220126,-1.481811,-0.363656,0.671189,-1.446002,-0.301744,0.720738,-1.127388,-0.595889,0.759405,-1.102907,-1.196015,0.118863,1.872443,0.055695,0.249527,-1.150614,-0.65693,-0.625723,0.23963,0.330482,-1.692014,0.137388,-0.866512,0.768928,-0.1833,0.365486,-0.721863,-0.697528,-0.398378,1.550235,-0.084343,0.359856,0.638187,1.373592,-1.28194,0.014944,0.910239,-1.598751,-0.616667,-1.435161,-2.120407,-0.19454,-1.773903,-0.669531,-0.355925,1.220735,0.92112,-0.112971,0.570124,-0.396172,0.88542,0.283246,0.16963,-0.193303,-0.831584,-0.052059,0.030099,-0.083275,-0.268714,0.461453,-1.679603,-1.976553,-0.770409,-1.013311,1.406635,-0.631373,-0.236444,-0.382249,1.256388,-0.214965,0.026642,1.717164,-0.441085,-1.19022,0.445289,-0.245109,0.569013,-0.29191,-1.373731,-1.697136,-0.493952,0.720011,1.570529,0.767064,1.270612,0.033652,-0.833117,-0.34917,-2.22343,-0.29125,-0.062795,1.070749,1.686379,0.227498,2.133526,0.447485,-0.325157,1.232869,-0.714831,-1.503752,-0.149992,1.095395,-1.282588,-0.961237,0.312519,1.409117,-2.200552,0.587688,-0.613995,1.678511,-1.395184,0.796799,0.354252,0.193422,-0.793543,-2.056057,2.360293,1.090675,2.342638,0.259182,-0.072133,1.516193,-1.48469,0.755034,-0.170603,1.459874,0.986682,-1.191795,1.002543,-0.367944,0.464986,0.575984,0.003919,-0.141052,1.356919,1.158315,1.541261,0.452974,-0.85951,0.2275,-0.109649,-1.540547,0.032577,0.239805,-0.215577,0.074139,0.353067,0.864922,1.078698,0.03811,0.033027,-0.762604,-2.187412,0.937948,1.585039,-0.332171,0.525358,-0.987484,0.110562,0.778788,-1.206177,-1.968552,0.990789,-0.61808,-0.890378,0.404592,0.906156,-0.003438,0.641866,-1.092343,0.022908,0.618548,-1.016226,0.268391,-1.216818,-0.669921,0.058497,1.747967,-2.711865,1.342744,1.172186,0.669896,-0.313472,0.823223,-0.646878,-1.636072,0.313851,-0.06726,1.296598,0.631819,-0.157738,0.319262,-1.474575,1.085083,1.064701,0.293082,0.969634,0.18544,-1.564387,-0.117588,-0.485582,0.350279,-0.707328,-0.445807,-0.069511,0.960576,-0.580327,-0.411592,-0.30404,1.670613,-0.139323,-1.086556,2.051849,0.839143,-0.567267,-1.648383,-0.592223,2.632136,-0.192312,0.357515,-0.213589,0.542049,-0.114979,1.478797,0.739475,0.023199,0.3358,0.085778,-0.521919,-1.171724,0.958669,-1.431513,-0.650736,0.849175,0.799625,0.651305,0.501364,0.824743,-0.22318,-1.53699,1.899048,0.770909,0.798973,0.676126,-2.117108,1.77234,0.677589,1.263763,1.150685,-0.084073,-0.94461,1.958429,-0.565841,0.919822,1.502887,1.65834,1.303236,0.138444,-1.255447,1.007167,-0.063943,0.284616,-0.095224,0.23486,-1.068897,-1.494932,-1.186627,0.218866,1.416667,-0.934512,-0.521708,1.672897,0.210475,0.330689,-0.944305,-1.278577,0.849498,0.324341,-0.007782,-0.664302,-0.422691,-0.332862,-0.957651,-0.289794,-0.754948,1.0537,-2.398772,-0.039274,1.365953,0.620593,-0.978558,-2.261376,-0.488638,-1.293299,0.328097,0.224062,0.066345,1.418599,-1.10818,1.379529,1.328227,-1.511102,0.747625,-1.408454,-0.430808,-0.676917,-0.462346,1.419018,-0.828028,0.428418,-0.255339,1.636279,-0.598638,-0.871808,-0.245208,-1.528769,1.110065,-0.252887,-0.579745,-1.419122,1.721358,0.255181,0.668895,0.142686,-0.810196,0.492389,-0.045383,0.011248,-1.201926,-0.642202,2.160523,1.085543,-0.681681,1.611191,-0.243973,0.251273,-0.251866,-0.383444,-0.471748,-2.38026,-2.366982,1.439987,0.783655,-1.328871,0.406624,-0.110549,-1.340173,1.15304,-0.548437,-0.652234,0.285345,-0.249026,-1.387887,0.259271,-0.169748,-0.656376,0.004462,-1.072533,-0.31209,1.039253,-0.003876,-0.191956,0.160583,1.579339,0.733295,0.25851,1.567803,-0.588184,0.393663,0.232657,-1.053513,0.76716,0.25938,1.159109,-0.020687,-0.752375,-0.106582,0.49836,-0.618204,-1.22508,0.019218,0.468292,1.729206,1.219118,-0.283051,-0.601304,2.447391,0.110113,-0.210106,-1.1599,0.935607,0.302,-0.699541,0.780593,0.473085,-0.195038,-1.025952,1.4284,-1.901351,-0.596449,1.440275,1.642371,3.381886,-0.558323,0.142587,0.368225,-1.023535,-2.412716,0.837596,0.162353,-0.357694,1.704553,0.385225,-0.119988,-0.3903,0.604585,-0.715801,1.085334,-0.848962,0.342776,-0.284454,1.524578,0.257837,-1.089013,1.598329,-1.529624,-2.777309,-0.115414,1.464995,-1.446573,0.508114,0.963073,0.815312,1.78516,0.47696,0.65932,-0.412598,0.399164,0.105105,-1.016385,0.366267,0.451269,0.7513,-1.024147,0.46249,-0.055314,-0.291826,-0.360518,0.12141,-0.74679,1.682724,-0.15625,-0.095352,0.846447,-0.115237,1.553316,1.225345,-0.453403,-0.834303,0.937914,1.042305,-0.280466,0.617099,1.001784,0.416314,-0.523013,0.064451,1.035353,-0.174614,-0.59939,-0.02901,0.824895,0.875306,1.47438,-0.003344,0.347108,0.526428,1.360048,0.787081,-0.912461,0.266082,0.030618,-0.244299,0.828327,-1.360834,0.155903,-0.004305,-1.06059,-0.76253,0.69244,-0.979901,0.511024,0.252121,-1.182479,-0.852265,1.964055,1.479418,0.15865,0.122244,1.63623,-0.640013,0.121315,0.576846,0.977266,-1.152791,-0.638814,0.61593,0.106183,0.657058,1.870126,-1.035899,-2.076446,-0.115107,-0.861875,-0.134652,-1.507107,-1.186156,1.058458,0.621243,0.121573,-1.957778,1.520445,0.690074,-1.870948,-1.742972,-0.515551,-1.299917,0.288685,-0.311698,0.402039,0.976906,0.63915,0.0067,0.507342,-0.659078,-0.919135,-0.175425,-1.321792,-0.872288,-1.459093,-0.692323,-0.843281,1.08355,-1.069178,0.248223,0.192378,1.271342,1.295238,-1.443412,-0.011085,-0.532864,-0.619475,0.80446,0.882954,0.091595,0.155337,-0.689859,0.028371,-0.077381,0.845016,-0.787694,0.687002,-0.599304,-0.338861,0.532138,-1.218459,0.472003,0.043802,0.225753,-2.148744,-1.138058,0.956695,-1.830109,0.711608,0.731588,0.125225,0.28766,1.325499,-1.286521,-0.909176,-0.030666,0.464739,0.17638,-1.069038,-2.670534,-0.078798,0.733344,-1.393857,1.316552,0.360822,-0.277454,0.668473,0.157366,0.782532,-0.616378,0.745333,0.682465,-0.049014,-1.351877,-0.237091,0.40167,1.711632,-0.802418,-0.18575,-1.746884,0.149793,2.091947,0.73404,0.216273,1.007484,0.650743,0.672066,-0.289752,-0.298456,-1.053908,-0.557257,0.686281,-1.543095,0.243881,0.87574,1.327073,1.103256,1.444198,1.502557,0.107874,0.830233,0.932394,1.20253,-0.507735,-0.31612,1.632289,-0.124661,-0.451891,0.183417]},"cancer_detection_non_cancer_a_frame_002":{"score":-0.8485777974128723,"feature":[-0.705488,-0.146768,1.305048,-0.505312,-0.211957,0.188886,-1.168555,-0.943933,0.013103,0.550561,-0.822807,1.020722,-0.396564,0.645948,-1.907991,1.038528,0.505974,-0.093173,1.013563,0.431053,-0.540073,0.41058,0.130123,0.238674,0.937766,2.457384,-0.187714,-1.664926,1.809882,-1.040579,-0.635178,0.023613,0.022606,-1.497894,1.176765,0.512112,1.070206,-0.968849,-1.214801,3.360387,0.346572,1.1693,-1.679832,0.175903,1.297557,0.820191,-0.884561,-0.154824,0.825955,2.131564,-0.175016,0.160967,0.453866,-1.662216,0.008216,0.400291,0.179125,-0.41979,-0.422191,0.357076,-0.778835,-0.298277,-0.130184,0.121517,0.567541,-0.413015,-0.451839,1.466801,-0.003781,-0.65471,0.66275,-1.172088,-1.170904,-0.234341,0.384358,0.305944,-1.018534,0.501041,-2.061861,-1.474816,-0.073724,-2.109582,1.038461,-0.209938,1.204984,-0.866007,-0.655172,0.727786,-0.004255,0.389253,0.675557,2.055571,1.56206,0.586105,-0.644045,-0.156343,0.719674,-0.362571,0.511657,-0.558252,1.412264,1.510245,0.574498,0.983233,1.744753,-0.870748,0.791939,-1.41113,-0.588857,1.018766,0.968901,-0.795048,0.051567,-0.198716,0.085195,-0.231175,-0.294914,-0.407007,0.622089,0.496213,-1.048073,1.472222,0.058391,-1.444155,0.552898,0.547261,0.627749,-0.443026,-0.289157,-0.094778,-1.076996,1.112008,0.355172,0.273282,1.607574,-0.671519,1.419468,2.360779,-0.921363,-1.017154,-0.71306,0.193677,-1.735704,-0.378389,-0.14661,0.270563,-1.346699,-1.57469,0.057795,-0.577834,1.066961,0.854944,0.155802,-0.970326,0.540386,1.475384,1.241017,-1.658663,0.739941,-0.344386,-0.06027,-1.702846,-0.19449,-0.928753,0.393195,-1.356936,-1.76019,1.781814,0.233441,0.253925,-0.691049,-0.381495,0.38782,0.937878,1.151729,0.12399,-0.295661,0.895987,-0.553491,-1.029323,0.08904,-0.23469,1.110807,-1.637419,0.329757,-0.736167,0.80318,-0.940961,0.0314,-1.075,-1.564741,-1.064476,0.722597,0.236469,0.562924,-0.440081,-0.757001,0.652284,1.441635,0.06371,-0.86376,0.033547,-0.269343,-1.07719,0.653807,-0.030578,0.47018,-0.644517,1.029667,0.481638,-0.602389,-0.442022,0.602651,-1.691069,0.512564,-2.338299,-0.176046,1.945314,-0.113929,-0.847798,0.011083,-1.211516,-0.56089,-0.511148,0.471988,-1.277063,-0.144641,-1.303634,-0.681276,1.081907,-0.421388,-0.002465,-0.087779,1.628744,-0.417451,0.315948,-0.73606,0.77058,0.497601,0.832914,-1.225049,0.602399,1.160012,-0.847641,2.011919,-0.026809,-1.077736,0.735602,1.920534,-0.990614,-0.672448,-1.478861,-0.725202,0.201905,0.167225,-1.549656,1.241323,-0.484091,-1.032248,-1.425806,-1.393501,1.023231,-0.304745,-1.165771,0.560713,-1.122695,1.869897,0.149199,-0.819738,0.736994,0.057966,-0.803237,-0.761265,1.862207,-0.589783,1.073505,-0.452,-0.241959,-0.189309,-0.213341,-1.288282,-0.368231,0.872748,0.583141,-1.44608,-1.10895,-0.588036,0.963133,0.856337,-2.107262,-1.155168,0.742582,-0.513634,-1.562342,0.403982,-0.013661,-0.079669,3.222106,0.419205,-0.259143,-0.317453,-0.003406,0.931268,0.108211,0.767553,1.031044,0.242282,-0.163074,-0.994342,-1.049016,-1.096159,1.400741,0.144631,0.432579,-0.091671,0.228258,1.155032,0.191977,-0.649723,1.284293,-0.257289,-0.639892,0.470106,0.636566,0.137674,0.855499,0.956401,0.887689,-0.341367,-0.832499,0.273205,-0.288877,-0.032589,0.665425,-0.899824,-0.550086,0.487391,-1.881404,1.055506,0.770731,-0.346893,-2.718475,0.406527,-0.09596,0.144042,-0.754217,-0.394564,0.090548,-0.085787,0.153346,1.886437,-0.461698,0.020647,-2.114533,-2.06819,0.935714,1.159459,-0.701472,0.302766,-1.405643,0.431273,-0.268056,0.094877,-1.17958,-0.445801,-1.398379,0.330564,0.10037,-0.395083,2.24824,-0.583991,-0.4473,0.019724,-0.197395,0.645955,-2.14744,-0.137975,0.107921,1.360632,0.300225,0.558091,0.822875,0.181717,0.43772,0.003338,-1.155577,-1.408317,0.275959,0.438971,1.356096,-0.211827,-1.804289,0.289479,-2.576632,-1.172623,0.559027,-0.990304,-0.967882,-0.538572,-1.827563,0.376862,0.767187,-2.308115,0.152946,2.369971,-1.37797,-0.867325,0.78924,-0.702774,-0.021801,-1.901366,0.190452,-0.472437,0.813458,-0.628344,-1.444042,-0.579646,1.179669,1.340385,1.238249,-0.121851,1.686677,1.988781,0.670648,-0.544919,1.456886,1.042695,0.060384,2.287325,0.737398,0.096864,-0.323858,-0.216558,-0.227247,-0.12709,-0.775323,-0.109637,1.408471,-0.582902,-0.296527,-0.310069,0.111698,-0.97559,0.311684,-1.237703,0.664321,1.895051,-0.807449,0.075887,-0.2752,-1.422664,-2.276629,-0.79284,-0.094938,-0.528067,1.034748,-0.798124,-0.381422,0.286172,0.076794,1.14955,0.110092,-1.323936,-1.115573,0.81325,0.518095,-0.243494,0.726086,-0.998025,-1.311223,-0.810538,1.558058,0.03006,0.220813,-1.016945,0.790877,-0.032999,-0.803796,-1.694082,-1.501827,-0.748344,0.461013,-0.200648,0.691545,1.626472,-0.451865,1.399332,1.140069,0.824822,-0.231782,0.486825,1.050086,-0.68581,0.533153,1.261102,2.303924,-1.319244,0.288607,0.144696,0.47033,0.674294,2.24031,0.718397,0.138786,0.393299,-1.78477,-0.446017,-1.154432,0.511285,-0.576177,-1.360235,0.328273,-2.392275,0.425273,0.013346,1.246562,0.319784,1.304887,1.758735,-0.233235,-1.0548,0.01412,-0.596249,1.488625,1.132442,1.090626,0.342278,-0.645045,-0.508321,0.653592,-0.632352,-0.088265,1.055414,1.207697,2.122403,-0.099543,1.626477,-0.275863,-0.004717,0.143869,0.367633,-1.369935,-1.171592,0.965904,0.054195,-2.33363,-0.057494,0.427432,-0.452897,-0.1713,-0.822775,-2.451872,0.297521,0.567549,-0.839571,0.209693,0.437621,-0.586403,1.546427,0.438636,-1.302806,-1.750569,-0.402262,-0.974747,-1.36451,0.316986,0.677811,0.500986,-0.581096,0.08724,1.232908,-0.767773,-0.851012,-0.392678,-0.031892,-0.714774,-0.155008,-0.029648,0.644264,-0.308745,0.265832,0.969916,0.067919,0.259084,0.980117,-0.028291,0.279153,-1.648069,0.630708,-0.944192,-0.233924,0.506887,-1.369912,1.028438,-1.433365,1.563327,0.109942,-2.199938,-0.685203,0.49808,0.382087,1.329827,1.727402,0.343098,-1.651118,-0.223524,-1.319234,-0.311814,-0.555922,-1.303784,0.919347,1.414181,-0.247885,0.130877,0.242647,-0.914372,-1.794496,-1.156646,0.347619,-1.839713,0.04564,-1.08964,-0.518676,0.292313,0.64748,0.436275,-0.961149,0.81307,0.701677,-0.2442,-1.697861,-0.546848,0.15495,-2.004606,-0.842161,0.037586,-0.311745,0.805733,1.640482,-0.101215,-0.457086,3.01426,0.176642,-0.095056,1.605074,0.024386,0.554132,0.465784,0.180669,-0.227379,-2.249051,-0.52062,-0.901044,-0.017422,-0.722463,-0.653219,0.121056,0.984925,0.682476,-0.168498,0.051185,1.397288,-0.378828,-0.302813,0.183331,-0.173626,-0.322364,0.268304,1.572946,0.357891,-0.151153,-0.402464,0.20659,0.56419,0.870114,3.089072,-0.393291,-0.731903,1.016987,-0.06067,-1.079535,-0.53307,-2.228692,0.617629,-1.92999,-1.404382,-0.118024,-1.443305,-0.991509,1.596272,3.394775,0.077592,-1.431396,0.225213,-1.384631,0.957302,-0.276091,1.855576,-0.322137,-0.102659,-0.770711,1.025971,-0.361272,-0.450131,-0.984877,0.216833,0.136749,-1.089366,0.271951,0.650828,0.341432,2.544539,1.062281,-1.636832,-0.769725,0.031002,0.877906,0.841585,-0.884216,-0.040239,0.825787,1.313414,-0.51179,0.864717,-1.211586,1.052144,0.300653,0.113219,-1.617348,-1.409627,0.339465,0.706862,1.745177,-0.612534,0.345264,0.332336,-0.090799,0.121586,-0.03146,0.170728,-0.51913,-0.470379,0.51354,1.015347,-0.336663,0.559299,0.657602,-0.616687,1.072324,0.319424,1.434739,1.101915,0.867826,0.165386,-0.268921,-0.007342,1.138776,0.673398,-0.258952,0.319705,1.034161,0.104763,1.041539,0.656223,-0.445439,-1.451375,1.104729,-1.606869,-0.665188,0.066479,-0.441886,1.260378,-0.327093,1.803383,-0.158415,0.23732,1.565302,-0.562559,0.493637,0.100566,0.166171,0.093648,0.056881,-0.511586,-0.010668,0.396097,0.810609,0.944111,-1.731757,-1.668433,0.738521,-0.093894,0.97954,0.143178,1.955851,-1.210281,0.67292,-0.029075,1.599826,2.004642,0.456329,-0.241137,-0.097478,0.158513,1.21592,-1.249929,0.786113,-1.31676,0.726874,0.216863,0.278179,1.193977,0.054283,-0.735489,1.450452,-1.186202,-2.182188,-0.927954,1.214916,-0.256167,1.749475,1.430656,-0.001178,1.848732,-1.092551,-2.302831,-0.949086,-0.402963,-1.17228,0.232672,0.304541,-1.065703,-2.049057,0.319649,-1.146155,0.770803,-0.637075,1.087556,-0.963699,2.00152,-0.42222,0.585873,0.318467,1.44694,0.438353,-0.175065,1.886036,0.44385,-0.595481,1.062521,0.700594,-0.163174,0.249081,-0.185766,1.153819,-1.753735,0.658921,-0.009723,1.086528,-0.757487,-0.810535,-0.142775,2.449582,-0.476939,0.685654,0.982262,-0.787627,1.123757,-0.062124,0.221658,-1.338164,0.274882,-1.362036,-1.154669,-0.069054,1.667664,1.523266,-0.969932,-0.243101,1.371094,-1.219352,1.363693,0.189432,0.296944,-0.833143,1.512769,-0.14947,0.881903,-0.874608,1.727798,1.520199,-0.380805,0.576961,-0.165891,-0.420327,-0.973848,-1.711808,0.406775,1.274793,1.387154,0.338964,-2.207744,0.609596,-1.227781,-0.319588,-0.208205,-0.33573,1.287064,0.983757,-0.469256,-0.771757,0.498033,0.752281,-1.795947,-2.858649,0.063905,-2.168009,0.712075,0.721225,0.063261,0.466073,-0.464744,0.751407,-0.495964,-0.492659,-1.321548,-0.17546,-0.412321,0.049442,-0.256478,0.485927,-1.472921,0.227093,1.991822,-1.06196,-0.523361,1.235655,0.924217,0.505881,-0.636634,0.255349,-0.465371,0.986196,-0.820569,-0.811983,0.726176,1.416889,0.282452,-0.506536,0.839074,-1.380332,0.56816,-0.402267,-1.612969,-0.262347,-1.870523,-0.144226,0.813202,-0.80746,0.855953,-0.894312,0.254409,1.337018,0.389469,-1.707455,-0.229256,0.600255,0.126735,-0.530722,0.209354,-0.883838,-0.315227,1.140642,0.682821,-1.453206,0.365074,-1.043019,-1.014609,0.321639,0.826649,-1.809294,-0.302171,0.312867,-0.624053,-0.278581,1.143272,0.192887,0.252987,-1.71217,-0.85833,-0.003838,0.735811,-0.004537,-2.75399,0.725374,-0.311638,2.424518,-0.958084,2.346309,-1.487974,-1.136894,0.418254,0.952435,-2.101878,-0.00456,-0.382865,-0.476658,0.09028,-0.321997,0.57797,0.003956,-0.41349,1.595301,-0.200266,-0.288401,0.374383,0.770849,1.706673,-0.470656,0.604635,0.779995,-0.466401,-0.195737,-0.906725]},"cancer_detection_non_cancer_a_frame_003":{"score":-0.990473210811615,"feature":[-0.742946,0.164197,0.732994,-0.541875,-1.070932,0.007256,-0.958307,0.015402,1.151166,0.671389,0.210022,-0.715115,-3.196628,0.121651,-1.138076,0.590061,0.21995,-1.239576,0.895639,1.360811,-0.385353,-1.516694,1.315327,0.693034,3.312613,1.208311,2.679745,-0.143153,1.111706,-1.094594,-0.56595,1.107944,0.748676,-0.326508,0.453457,-1.453049,0.21435,-0.761433,0.160657,0.758022,0.669466,0.628941,-0.4604,0.725651,1.696976,1.001554,0.812131,0.522236,-0.113285,0.436642,-0.236014,-0.660981,-1.192732,-0.044405,-0.206414,1.191582,1.030428,0.105955,0.470883,-0.778317,-0.94364,-0.784795,0.188853,-0.682738,0.721283,0.295527,-0.123695,0.447369,-0.529455,-0.32353,-0.259887,-0.815486,-0.58034,0.090228,0.386816,-0.698923,1.194334,0.649813,-0.092406,0.57588,0.966903,-1.580571,1.691939,-0.783016,-1.054972,-0.501381,-1.917925,-0.967082,0.424469,-1.483745,0.941904,0.721851,0.808777,1.069735,0.107063,-0.154937,0.328719,0.638679,-0.210065,0.382343,-0.076692,1.540452,-1.205878,2.205618,1.734448,-0.501448,0.5294,-1.096906,-1.179779,0.931905,0.603756,-0.079078,-1.206744,0.77228,-0.590858,0.472324,-0.153944,-2.079675,0.425171,0.975086,1.681029,0.348237,-0.721867,-1.427374,1.241221,-1.330619,0.099044,-1.362848,1.03566,0.213643,0.349538,1.433708,0.022646,-1.393037,1.279755,1.027484,-0.637997,1.384763,0.225671,-0.31915,0.213193,1.023525,-0.471705,-2.195966,0.15565,0.79214,-0.137613,-0.698566,-0.03445,-0.837073,-0.228744,1.660626,-0.187884,-1.290504,-0.827141,0.871629,1.401283,0.464543,-0.84208,-0.56509,-0.153141,0.209334,-0.61111,-2.163812,0.879923,-1.938417,-1.85267,0.638345,-0.269644,2.901338,-0.007314,-0.728517,-0.407505,0.208793,-0.21781,-0.414334,-1.668645,-1.665357,-0.851067,-1.634836,0.219488,-0.629252,1.594815,-0.58135,-0.356507,-0.451783,0.767525,-0.16407,0.997375,-1.299113,-0.077716,-2.376705,1.153914,0.753678,-0.523906,-1.596096,0.597698,0.835431,1.391279,0.800837,-1.723801,0.178909,-0.161018,-0.513158,0.80179,0.503311,-0.424575,-0.871216,-0.426442,-0.338979,0.722281,-0.395851,0.286599,-0.406617,-0.278518,-0.663663,-0.726597,-0.531883,-0.909972,-0.337778,-0.51712,-1.57338,-0.637873,-0.077203,-1.722781,0.316288,-0.869999,-0.759966,0.548166,-0.303678,0.330017,-0.289639,0.350511,2.943069,-0.460799,1.681372,0.391404,-0.259235,0.936269,0.309095,-0.22861,0.274424,1.390049,-0.433916,0.781304,-0.75219,-0.949237,-0.739128,1.332175,0.199149,-0.183586,-0.216227,0.001805,-0.548523,1.119973,-0.348145,-0.009943,-1.325409,-0.211491,-1.452028,-1.700735,-1.14723,0.56041,-1.279135,-0.600587,-1.201731,0.828133,-0.103806,-0.926863,1.192496,-0.515153,-0.271949,-1.353462,-0.490772,1.387669,-0.076959,-0.048134,0.077473,-0.042108,0.915668,0.069173,-1.515638,0.589681,1.049117,-0.370233,-1.625681,0.769957,0.469061,-0.371663,-0.849326,1.607068,2.753438,0.709831,-2.529859,-0.842282,-0.113755,0.92133,2.623525,-0.695876,-0.976533,1.221728,0.011257,-0.211732,0.168243,-1.329308,0.107379,-0.590283,0.460523,0.882991,-0.225223,-1.139707,-0.126381,1.726686,0.013901,0.288648,0.55489,-0.570231,0.114293,-0.885581,-0.100852,0.878869,-0.024445,-1.223773,-0.776654,-0.46081,2.619665,0.429922,1.285472,1.028701,-0.562275,-0.872026,0.676018,0.059447,0.425764,-0.96362,-0.8085,-0.066368,-0.526537,0.598775,-0.065264,-0.684558,1.603357,-0.084804,0.562384,-0.365558,-0.032874,0.243401,-2.527784,0.218428,1.306946,-0.761693,-1.219011,0.933601,0.107905,0.186424,-0.294669,0.435,-2.185461,0.682943,-1.522144,0.911097,-1.95048,-0.622905,0.844467,0.194835,2.215467,0.16698,1.172468,-0.012836,0.447074,-0.448018,0.438916,-1.23534,-0.185353,-0.669266,-2.627462,-0.50968,-0.360817,1.084037,0.296933,-0.287664,0.05369,-0.519014,-0.571939,0.733434,0.658355,0.463576,-0.789817,-0.862183,1.059956,-0.096239,-1.108606,0.228966,-2.25484,-1.233195,-0.623429,-0.836118,-0.559881,0.161029,-0.589232,-0.293183,0.221675,-1.014558,-0.04059,0.873376,-0.707775,-0.15513,1.914423,-0.889563,-0.127179,-1.160351,-0.111756,-0.170361,0.287527,1.063669,-1.063388,0.537154,0.99697,-0.381943,1.312557,-1.058096,0.825687,0.623769,-1.800422,-2.553151,1.858988,-0.016998,1.134108,-0.674394,-0.64261,-0.427863,-1.203229,-0.430321,0.313578,0.86407,0.43074,-1.161149,1.101521,-1.057612,-0.816741,-0.024777,0.217106,0.211157,0.339501,0.19059,0.829955,0.054429,-0.54722,-0.660509,0.452499,0.106454,-1.735021,-0.434771,-0.527785,-0.94315,0.40666,-1.161173,0.290255,1.804256,-0.345903,0.959172,0.244932,-0.584177,-0.922171,0.067827,-0.763819,0.336637,-0.935979,-1.258833,-0.733539,-1.856392,1.259942,-1.957613,0.858559,-0.322733,1.003848,0.017835,-1.52939,-2.242048,0.800749,-0.317967,1.084427,-0.315492,-0.370093,-0.668703,-0.092863,1.155297,0.361253,1.559876,1.044382,0.975661,0.601495,-0.323802,-0.4569,-0.565938,0.852612,-0.527909,-0.570762,1.542927,-0.196078,0.504521,-1.341019,-0.071617,0.82702,1.22193,0.622128,0.366434,0.025995,1.19269,0.681423,-1.087313,0.818665,-1.169769,0.877285,-0.22632,1.593845,0.110553,1.201362,0.61482,-1.162189,0.037438,-0.543396,-0.215807,-0.949316,0.649227,2.314932,-0.654651,-0.894711,-1.107262,0.126027,-2.450126,-0.353562,0.810081,0.901537,1.198674,0.538327,0.026481,1.430114,0.035513,0.90637,-0.754628,-2.991593,0.34783,0.167478,1.797595,-0.978528,-0.233429,0.036687,-0.605469,-1.455934,0.670554,-2.074548,0.131254,1.214729,-0.128697,-0.368136,0.315816,0.712275,0.467278,-1.188533,-0.784615,-0.708018,-0.171559,-0.686441,-0.111164,-0.640669,-0.996097,-0.642581,-0.17542,-0.0927,2.411071,-0.738508,0.148761,-0.224219,-0.905657,-1.458732,0.812161,0.079062,0.081626,-0.466654,-0.432774,-0.21956,0.869211,0.008952,0.981654,0.227283,-0.061314,-0.451162,1.472478,0.292211,0.817304,-1.135998,-0.038769,0.65379,-0.41588,0.130495,0.067634,-1.453834,-2.379169,0.595693,-0.297768,1.208216,1.557845,0.44356,-1.401011,0.499332,-1.517831,1.972118,0.094817,-0.635824,-1.068301,0.468982,-0.110545,-0.15299,1.519653,0.046096,-0.552844,-0.254321,0.856531,0.023899,-0.246429,-1.788396,-1.288232,0.252611,0.420226,-0.1867,-0.765144,1.008811,1.819538,0.065309,-1.832326,-0.787837,1.11067,-1.670033,0.013805,1.375136,1.560936,0.091107,0.406123,-0.555645,0.165002,1.611455,0.014094,0.549647,0.798556,-0.907627,0.212558,0.824359,-1.054391,-0.691331,-0.246901,-0.465454,-0.011148,-0.680464,-1.796913,0.201567,-0.172342,1.551877,-0.192812,-1.522686,0.096254,-0.302719,1.350769,0.096053,-0.845605,-1.184936,0.266439,-0.842162,-0.564339,-0.628083,0.359274,-0.418043,-0.32359,0.932752,-1.270114,1.181902,-0.009481,-0.06283,0.480761,1.059221,-0.53377,-0.462518,-1.746629,-1.201023,-1.685763,-1.045017,2.349301,-0.141005,-0.666428,1.859233,1.46787,-0.928922,-0.691233,-0.158029,-0.071158,-0.763804,-1.026222,0.5728,0.716046,-0.025711,-0.528799,1.774005,-0.939993,-0.08023,-0.51381,-0.531726,1.99709,-0.942742,1.876011,-1.401655,0.283228,1.2689,-0.926131,-0.405959,1.070711,1.355751,0.088895,1.490527,-1.360808,-0.023459,0.28302,3.314595,-0.842626,1.217821,-0.958776,0.581244,0.532006,0.737673,-0.271683,-1.2764,-0.158369,0.431323,1.14775,-1.478624,0.641998,-0.599656,-0.048665,0.444022,-0.851137,-0.012848,-0.16738,-0.450307,1.460367,2.962582,-0.184843,0.529519,1.402498,-0.324911,0.878624,0.851128,0.959736,0.875797,0.377708,0.80289,1.656092,-0.217612,1.206195,0.544099,0.24956,0.732552,-0.665989,-1.910233,1.399064,-1.158663,-0.076957,-0.709547,0.548694,0.253326,0.121732,-0.64458,1.728388,-0.351152,1.172267,0.36363,-0.206331,1.0704,1.570155,-0.046182,1.744821,0.628464,1.319504,-0.658863,1.050505,0.035557,0.488533,-0.334936,-1.609359,1.527338,-1.355077,-0.806246,-0.591617,0.4367,3.265682,-0.125747,0.047202,-1.494357,-0.293873,-0.964708,-0.099459,0.607522,-0.495847,1.246453,0.212698,-0.554868,0.245891,0.544007,-1.392703,-0.630776,0.574175,-0.028411,-0.122478,1.053498,-0.026053,-1.230018,0.003919,-0.204184,-2.665848,-0.389415,0.909538,0.155845,0.453447,1.71457,0.471571,0.943968,-1.451346,0.52104,0.201238,-1.482163,-1.601562,-0.881006,0.849561,-1.042878,-2.415227,0.101114,-1.054614,0.175033,-1.678077,-0.264657,0.707582,0.497336,-0.130102,0.193997,1.009641,1.898339,-0.420958,1.669128,1.237409,0.95518,-0.780821,-0.264763,-0.911577,-1.141232,1.363437,-1.840759,0.278784,-1.323204,1.057425,1.197469,2.189351,-1.14042,-0.674791,-0.250183,0.368403,-0.256832,1.067445,0.502396,-0.050426,-0.366046,0.862682,0.039573,-0.040577,-0.609091,-0.378548,-0.463952,-0.010811,0.395944,1.340296,1.056097,-0.573579,1.383348,-1.088607,1.750423,0.223815,-0.102756,0.015781,-0.463648,1.418175,0.72785,1.09454,0.260434,-0.260726,0.330717,-0.430754,0.477286,0.895991,-2.154085,-0.995796,-0.441466,0.340354,1.890437,1.608327,-1.832281,1.284771,-0.352268,-1.477406,-0.16676,0.491644,1.870006,0.115934,0.188152,-0.343178,0.906202,-0.558903,-2.079674,-1.112347,-0.191387,-0.201286,-0.08663,-1.038579,0.806734,2.143638,0.341139,2.609699,1.148963,-1.52356,-1.437221,0.291892,0.006773,0.897239,0.226113,0.51638,-0.191972,-0.127306,1.612865,-1.616312,-0.769729,-0.924133,0.342971,1.02189,-0.319836,0.904564,-0.194024,1.850376,-0.416008,-0.253059,1.704829,-0.255726,0.227112,-0.633808,1.708908,-0.812392,0.179735,-0.813879,-0.368918,0.466328,-1.57411,0.333327,1.938915,0.851669,0.129282,-1.183866,-1.579505,0.625617,0.465508,-1.116772,-0.253892,-0.593419,0.252153,-0.364124,-0.466496,0.314882,-0.127461,0.596476,1.018585,-0.409836,0.49221,0.321744,-0.135759,0.14356,0.734795,-0.040729,0.841622,0.781569,-1.119903,-0.610687,0.842423,1.598194,0.549672,-1.425519,0.629942,0.39104,2.237324,-0.245892,-2.292601,-0.592372,-0.803894,-0.510163,0.640937,1.995829,-1.233272,-1.438437,0.579654,0.922284,-2.365067,0.119939,-0.594178,-2.059599,0.186872,-0.792491,-1.179206,0.746916,-0.557876,1.915615,0.791602,0.851761,0.455865,1.359537,1.573236,-1.047543,0.802377,-0.607535,-0.45684,-1.181425,-0.807415]},"cancer_detection_non_cancer_a_frame_004":{"score":0.24940647184848785,"feature":[0.082309,-0.136745,1.017991,0.217266,-0.583162,-0.443586,-1.101714,0.208245,1.420632,-0.611968,-1.103898,-0.272658,-0.716402,-0.944222,-0.831702,0.46811,0.553633,0.276148,-0.967318,-0.028444,-1.078737,-0.427138,3.275602,0.804062,0.219592,-0.480999,0.663582,0.395523,1.561162,-0.127927,-0.741968,0.288894,0.497535,-1.043105,1.086502,0.196342,0.790439,0.707575,0.05384,1.3881,-1.073662,-0.301417,-0.864989,-1.003596,1.177488,1.211432,-2.320728,0.005999,-0.503048,-1.253934,1.11407,-0.874933,-0.154714,-0.36118,-0.774002,-1.140915,-0.355942,-0.63472,-2.524788,-0.877632,1.988939,0.431694,0.747474,-0.756967,-1.04335,0.868234,-0.039102,0.842532,-0.124731,0.493096,-1.416221,1.000163,-0.467349,0.065132,-0.073485,1.199066,0.704588,-0.779777,-0.225979,0.478285,1.512745,-1.331599,-0.746696,-1.632112,0.61364,-1.917159,-0.646476,-0.759601,1.054622,0.21926,0.290309,0.240255,0.234485,-0.694562,0.490201,-1.654105,-1.146595,-0.365988,0.514675,-2.014501,-0.859676,1.195453,0.111387,-1.215845,-0.013493,0.924133,0.921552,1.201589,0.676663,0.116063,0.369386,-1.071169,-2.421336,-0.681107,-2.428535,-0.318391,-0.268992,-0.729988,2.121372,0.130718,0.206394,1.038278,-1.740354,0.436329,0.587878,0.828784,0.388546,1.75107,1.40411,-1.357965,0.286906,1.390346,0.740503,-0.110145,0.608589,1.026142,-0.146721,0.431386,1.376366,2.52165,2.01036,-1.467022,0.545855,0.241303,2.01054,0.112473,0.673434,-0.174953,1.270669,0.291414,-0.094039,1.161185,0.253656,-0.43623,0.231714,0.508741,0.188822,0.44712,0.984357,0.084375,0.592079,-0.312951,-1.510253,-0.714458,-0.848456,0.840815,-1.132026,0.042194,0.589203,0.77699,0.097988,-0.722642,0.352244,0.11337,-1.361719,-2.671109,0.165545,-0.822485,-0.980026,-0.321636,1.15523,-0.758183,0.547396,-1.659904,-1.254256,-0.157801,-2.229985,-2.103189,-0.154755,1.324079,1.017201,-0.870325,0.931326,0.363131,-1.311906,0.146878,2.065875,-1.492806,-0.941783,0.400245,-1.524262,1.221175,-0.529541,-0.604001,-0.155713,1.105893,-0.225576,0.786444,0.566379,-0.151891,0.366266,-0.014674,-0.046262,0.706971,1.259396,-0.719197,-0.515462,0.277123,-0.857151,0.98565,0.023552,-2.462638,1.375899,1.080917,-0.278713,0.098896,-0.659299,-0.626651,-0.775061,0.172234,-0.754775,-0.807878,-0.075551,2.836453,-0.131788,-0.155604,-2.111096,0.485091,1.231507,-0.735494,-0.197684,0.088195,0.53825,0.199972,-0.026166,0.13033,-0.12593,0.904564,1.995784,1.175343,-0.062076,0.140947,-0.674149,0.716744,0.470571,-0.840637,0.194377,-0.664375,-0.193269,-0.019506,-0.547276,-0.480734,0.481088,-2.607649,1.008212,-0.880878,0.570943,-0.587341,0.11697,0.056277,-0.016227,1.311285,0.364676,0.830679,-2.622578,0.818568,-0.664817,-0.118134,0.60262,-0.086251,0.668495,-0.805611,0.482188,0.691912,0.563686,-1.030931,-2.550669,-0.223613,-0.398485,0.992043,0.64939,0.490739,0.863215,-0.196562,-0.298612,-1.915386,0.257555,2.04334,0.074941,-1.204381,-0.356841,0.464654,0.530332,-0.080775,-0.028924,0.310973,0.401497,-0.430131,-1.369547,-0.114302,1.160444,-0.185527,-1.123332,-1.070424,-0.090264,-0.334768,-0.118454,-0.051774,-0.694486,-0.479864,-0.902708,-0.426334,0.806873,-1.108973,-0.679216,1.397417,0.506873,-0.953584,0.190582,0.95186,-0.78573,0.225753,0.911815,0.520729,0.399395,1.598909,-0.148313,0.130029,-0.765519,-1.045964,-0.378922,1.186407,2.653131,-0.624705,-0.742526,-1.018535,0.093219,-1.664914,0.1217,-0.042027,0.137022,0.183808,-1.149538,0.060614,-1.904316,0.42237,0.901319,-1.139351,0.387368,-0.594841,1.227312,1.209432,-0.390501,1.013548,0.02021,1.673535,2.130634,2.09753,0.765836,-2.94406,0.045877,-0.525825,-1.129079,0.578452,1.098028,-1.607143,0.465451,1.479153,-0.421736,0.532683,1.648443,-1.871893,-1.851285,-1.340692,-0.906619,0.473339,-1.778191,1.699265,-2.072495,-0.619471,0.19547,-1.063926,-0.522804,-1.264093,-0.684932,0.654179,-0.546773,-1.728241,0.56041,1.637384,0.272089,-0.736308,1.66724,-0.3788,0.228087,-0.241032,-1.147622,-0.011674,0.338065,1.086168,-2.011519,-0.475767,0.59297,0.290867,0.03801,0.002316,1.358659,-0.811021,-0.870768,0.8943,0.009515,-0.361939,1.466412,-0.133475,-0.533476,0.662414,-0.473111,-1.400725,0.619888,0.941355,-0.252821,-0.32293,-0.680397,-0.675064,0.274638,0.270345,0.729238,0.707688,0.983157,-0.478866,0.885062,0.759871,-0.201227,-1.188828,-0.858998,1.753985,-0.510756,-0.602348,-1.885262,-0.087509,-0.822979,-1.992103,1.444746,-0.070756,1.638686,0.173988,0.566457,0.130167,0.489237,-0.394661,2.288654,1.460963,-1.005507,-1.178751,0.122071,-0.010974,1.651848,1.709733,-0.567595,-1.500227,0.302057,0.864778,-0.731268,0.866675,0.836577,0.953511,-0.347082,-1.513511,-2.332327,-0.425552,0.0851,0.636698,-1.637046,-0.113853,-1.297843,1.305733,0.614324,0.061127,-0.759684,-0.464142,0.276671,0.102067,-0.490667,-0.025804,0.025793,0.522632,-1.509203,-1.357262,-0.658515,0.219391,-0.899049,-0.970058,0.969574,0.072917,-0.074293,-0.137831,-0.103332,0.41218,2.999861,-0.431066,0.440753,0.571479,-0.117363,0.274513,0.110463,-0.133561,1.250863,-0.24689,0.533602,-0.21608,-1.65173,-0.315065,0.965528,-0.280212,0.376399,0.017859,1.294186,-0.909576,-0.022732,-0.319928,-1.655114,-0.043027,0.082089,0.102106,-0.845699,0.049837,-0.118079,-0.849161,0.452112,-0.657725,-1.231837,-2.562029,-0.264845,0.428336,1.524732,1.888436,-0.571353,0.217327,2.309713,1.038954,-0.416554,-1.359548,1.230876,0.122152,-0.632561,-0.310956,0.126257,0.900056,1.90641,-0.24647,-0.058191,-0.810578,-0.627775,-0.183901,0.013075,-0.764326,-0.831829,-0.853485,-1.068001,0.770276,0.133339,-0.900679,0.700269,0.430585,0.478005,-0.935302,-1.825356,0.540562,0.500615,0.109974,-0.484051,0.984936,-0.229918,1.500704,-0.828604,1.803485,1.780499,-0.302464,-0.913142,-0.756519,0.646162,0.091955,-0.337739,-0.997353,-1.171129,0.451705,-0.38286,0.439781,0.750168,0.966593,0.899111,-0.248846,1.85541,0.648223,-1.129885,-0.166491,-0.03447,1.671485,1.047872,0.644362,0.485161,-0.198162,-0.274913,0.649012,0.570779,-0.395159,-1.019608,0.485508,0.84355,-2.232442,-0.201217,-1.082605,-2.22725,-0.572848,-1.76136,-0.347301,-0.004814,0.654786,-1.094113,-1.269381,1.087389,0.480887,1.470647,0.395499,-1.616722,1.317113,2.336566,-1.747363,0.979558,1.308551,-1.679172,1.546674,-0.656873,-0.841459,0.71668,-0.558843,0.189408,1.156777,-0.575881,-1.668404,-1.426546,0.678703,0.117102,0.948337,0.866527,-1.87943,-1.082978,1.103961,0.264277,-0.508719,0.761277,0.669347,-0.309989,-1.139963,1.664077,-0.972812,-0.461736,-1.022236,0.770705,0.591665,-0.006365,-1.230385,0.1499,-0.051109,-0.116646,0.430857,-1.0209,1.04153,0.071768,1.9257,-2.168627,-2.124258,-0.764504,0.651096,0.435008,-0.683314,-1.472502,-0.667948,-1.026525,1.440029,0.786885,-1.87224,0.316698,0.461637,-0.862532,-0.209591,0.372372,2.005758,-0.414283,0.866846,-0.854332,-0.215014,0.644326,-0.645592,1.154774,0.506297,1.445788,0.226488,0.743502,-1.63389,1.276911,1.302182,-0.114074,1.58925,0.521502,1.136947,-1.384711,-0.852078,-0.07164,0.049606,0.929633,0.181947,-0.014329,1.600059,-1.266057,0.79821,-1.146019,-0.597166,-0.445466,-2.206766,-1.103279,-0.227888,0.883172,-0.353484,0.893957,0.119252,-0.809449,0.740692,-0.012967,0.453832,0.297285,0.517908,0.429306,0.720374,0.727252,-0.514818,-0.906864,-0.8532,-2.632773,2.574958,-0.115904,-1.56081,0.573567,0.615269,0.53105,0.592549,1.634747,0.402888,-0.676703,1.351761,0.228297,0.81913,0.596085,-1.012386,1.005798,0.615068,-1.571819,-0.46715,-0.534535,-0.369189,0.599005,-0.681751,-0.414218,-0.508957,-1.201336,-0.716188,2.367086,-0.107655,0.61558,-1.561582,1.936155,-1.722768,0.378717,0.887496,2.019164,0.538085,-0.369898,-0.994482,-1.663715,-0.265307,1.062554,0.908565,2.039571,1.411121,0.756014,-0.561406,0.48986,0.076546,0.065359,-0.372483,-0.400259,0.375248,0.980655,-0.643336,-0.091866,-0.317671,-0.940746,1.333265,0.043989,0.931535,0.432002,0.436187,-0.293917,1.086334,0.399647,-0.567231,-0.97725,0.4947,-0.48758,-1.29434,0.820793,0.71411,-1.211556,1.14268,-0.204962,-0.326982,-0.070987,-0.393086,-0.376098,-0.341367,1.430993,-1.313726,-0.102807,-0.035536,-0.846685,-0.131097,0.913688,0.425823,-1.242307,0.068138,0.988353,0.529112,0.093613,1.962714,-0.559905,2.141323,-0.035397,-2.622535,-1.702118,0.016726,-0.98924,-1.276872,-0.055477,-1.14245,0.548913,-0.641223,-0.324461,-0.004531,-1.107326,-1.417369,0.492471,-0.72197,0.535592,2.102405,-1.246954,0.003501,-0.274704,-0.151284,-0.09327,1.466701,-0.114577,0.422483,-0.601755,-0.915139,-0.715245,-0.386699,1.390198,0.158419,-2.297536,0.680134,-1.465703,-0.094886,-0.357119,0.894155,-0.704523,0.754783,0.402735,1.669993,0.050002,-1.339313,-1.035665,0.652491,-0.266454,1.331787,-0.477499,-0.97688,-0.692938,0.476103,1.092608,1.70284,1.040812,-2.189262,0.311341,-0.652142,-0.221561,-0.466179,0.347748,0.802623,0.737158,0.599117,-1.838206,0.910353,-0.143688,-0.924332,0.187247,0.628039,-0.810827,-1.291958,-0.472396,0.009813,0.406205,0.155687,0.454699,0.501331,0.701202,-2.953357,1.313684,-0.720759,0.643686,-1.666975,-0.417556,-0.072863,0.069064,0.356166,-0.707001,-0.229176,0.22312,-0.093619,-0.490467,-1.536766,0.255345,0.423846,0.420515,-0.350087,-0.887352,-0.651134,2.138919,0.473304,0.754251,0.719339,-0.028492,-0.514933,0.400855,0.152345,0.531266,-1.88473,0.026799,0.051566,0.897491,-0.887758,-1.415831,0.828077,-0.601398,0.040355,0.350757,-1.018553,-1.234823,1.725167,-0.15075,-1.165684,1.902373,-0.197759,1.274674,0.509115,-1.388753,1.324881,-0.622215,0.069085,0.628663,0.457096,-0.452205,0.98622,1.033122,-0.349364,-1.052547,1.146107,-0.630705,-0.386628,-0.71368,0.661833,0.603788,2.276771,-0.817697,0.792197,0.240799,1.986444,1.634675,2.32786,2.161,-0.067121,1.052769,1.0933,-0.561096,-1.178578,0.350584,0.599149,-0.717242,0.782418,-0.81807,0.521643,1.683547,0.595919,0.410321,1.366844,-0.126121,0.482203,2.127741,-0.561172,-0.232246,-0.590288,0.719225,-0.016309,-1.472649,-0.986746]},"cancer_detection_non_cancer_a_frame_005":{"score":-0.6901851296424866,"feature":[0.594935,-0.767189,-0.263202,-0.406028,0.921588,1.135059,1.16665,0.055586,0.257493,-0.425404,-0.327784,0.435756,-0.169293,-0.979744,-0.729234,0.083481,-0.386036,-1.045795,-0.133691,-0.276029,-2.04728,0.646129,1.518926,-0.707842,0.179052,0.802285,1.646832,0.187446,0.418321,1.189181,0.232929,-0.275641,-0.11874,1.523042,-0.378565,-1.495436,1.356451,-0.897117,-0.979072,1.001889,0.058325,0.687755,-1.162991,1.002701,1.387317,-0.263134,-0.335827,-0.331438,-1.434001,1.326859,0.453154,0.826658,-1.055402,-0.348764,-0.506954,-0.221753,1.038416,0.502408,-0.044117,0.184401,0.817789,0.772759,-0.223494,-0.409469,0.095408,-0.581473,-0.478216,-0.660545,1.611613,1.050266,-0.45068,0.810261,-1.241248,0.163968,1.179108,1.833048,0.311168,-0.088994,-0.158024,0.458989,0.668766,-1.79483,0.278098,-0.420772,-0.230203,-1.403838,-0.331626,0.906566,-0.711671,-1.665962,-1.460818,0.371844,-1.924472,0.102458,-1.150189,1.099365,-0.493865,0.897846,1.467434,0.477103,1.365732,1.599714,-1.659635,0.4187,-0.092799,0.570595,0.195299,-0.43279,-0.546063,0.327591,-0.915482,0.415164,-0.52806,-1.483487,-1.514357,0.730973,-2.528467,-0.36731,-0.422959,0.609164,0.028788,-0.434038,0.330779,-0.006421,1.330141,0.069143,-0.134399,-0.016262,0.51556,1.593074,-0.090757,0.571908,-0.582034,-1.639011,0.771053,-0.975738,2.148027,-0.973762,0.753227,-0.152144,-1.182212,0.650136,-0.737404,0.559448,0.683894,-0.336206,-0.054665,1.183206,1.472833,0.281571,0.024011,1.150003,0.935585,-0.860491,-0.236058,0.47633,-0.582824,0.386237,0.307583,0.729546,-0.468828,-1.782171,-1.305966,-1.085071,-0.122435,-2.42915,-1.530961,0.548015,0.817108,0.847329,-1.262067,0.767729,1.065004,1.571928,0.377686,-0.103939,1.43593,-0.564722,-1.378286,0.646742,1.53827,-0.390896,1.781592,-1.043448,0.244334,-0.90312,-1.547749,-1.153035,0.194857,-0.489469,-1.295503,-1.711029,1.949943,0.032279,-0.923299,0.330709,0.582701,0.340748,-0.743704,1.16723,0.65173,0.239348,-0.431818,0.185606,-0.880204,-0.403425,-0.672877,-0.59491,2.061672,-0.018827,-0.33187,0.411622,0.873258,-0.048585,0.613542,-0.470992,2.100956,1.540553,-1.653838,-0.738795,-0.315534,-0.118235,-0.645299,1.713041,0.082215,-0.493156,-1.098737,-1.538067,-1.744149,0.850248,-0.274619,0.875568,1.527543,0.068209,-1.148547,0.715318,0.281988,-0.403412,0.324704,-0.879918,0.02422,-0.557959,-1.385341,-1.52523,-1.094015,2.223392,-1.769459,-1.038269,1.036634,0.049587,-1.837832,-0.140968,0.487575,0.485522,0.164981,-1.849102,1.020186,1.128801,-2.066609,1.109624,-1.135352,-0.995684,1.137723,-0.149364,-0.815136,-1.260317,0.839423,-0.104776,-2.547731,0.05327,-1.646327,0.031573,-0.588967,0.933453,0.262633,0.336804,-0.941805,-0.433868,-0.038594,0.883411,-0.653317,1.004597,0.276797,2.159465,-0.584892,0.737922,-1.241804,0.14286,-1.405395,-0.301651,-0.288301,1.653585,1.310322,0.116694,-0.768968,-0.815298,-0.324046,1.401922,0.764872,-0.890571,1.081107,-0.570904,-0.696669,-0.054267,0.621963,-0.794547,0.033095,1.296041,0.829865,-1.760563,-0.273266,1.105303,0.445446,0.320715,-1.308576,-1.627028,1.09153,-0.881483,1.157754,-0.727,0.860899,-0.660353,-0.85138,2.016647,0.274593,1.081162,0.83611,0.071208,0.766848,-0.371107,0.46701,-0.0009,1.440111,1.445068,-1.395042,-0.089304,-0.848678,-0.54157,0.389525,-0.016982,0.103347,0.548491,-0.622874,-1.748475,-1.833177,0.797478,-0.445884,-0.628586,1.317036,-0.673055,-1.211852,-0.023683,0.256467,-0.79946,0.620242,-0.439295,2.278796,-0.321342,-0.184506,-0.640968,0.453115,0.022476,-1.243561,-1.312539,-0.581815,-1.139645,-0.380742,-0.84619,0.579127,-0.087606,-0.060194,-0.587648,1.501387,0.073106,-0.462511,-1.36021,0.375143,0.119857,1.212229,1.315812,0.261648,-1.618962,0.150739,2.622914,-1.503016,-0.03642,-0.62288,2.354203,-0.305405,0.287739,-0.005716,0.170568,0.673792,-0.620952,-0.030398,-0.222791,0.438211,-1.190091,-0.098951,-0.590095,0.507695,-0.704633,0.271627,0.594082,0.536463,0.398043,-0.230148,0.796447,0.310467,0.087785,-0.227451,0.505721,-1.005233,0.602698,-0.486082,0.792201,-1.854096,-0.223208,0.769339,2.078036,-0.29122,0.000652,1.145176,-0.610264,-0.844546,2.44339,1.164938,-0.393525,-0.024981,-1.149028,-1.810077,0.025705,-0.654827,0.376687,-1.386926,-0.597196,1.317999,-0.261337,0.62791,-0.986075,1.268972,0.209344,-1.071158,0.241471,-0.005534,0.601407,-0.598528,-0.857961,-3.292492,-2.140102,-1.303612,-0.474896,0.421723,-0.401456,-0.40771,0.746023,1.517664,-1.229364,2.664242,-0.263621,0.880103,-0.651838,-0.78553,-2.132689,-0.269897,-0.089601,-0.1467,0.746052,-0.024508,-0.004203,-0.632048,-0.600706,-0.536527,0.505873,0.227255,-0.201386,0.476842,-1.450398,-0.312566,0.004028,1.031089,-1.038714,0.44013,-0.077055,-0.945333,0.823656,-0.758414,-0.033735,0.987214,-0.24957,0.222105,1.846388,-2.169943,-0.686562,-0.208734,0.768582,-0.794184,1.547067,1.50899,0.398413,0.340528,-0.777347,-0.755582,-0.256011,-0.181745,-1.400953,-0.904635,-0.751642,0.537537,0.136536,-0.621362,-1.273451,-2.86493,1.474693,1.426334,-0.039909,-0.235955,-1.154558,1.16104,-0.212787,-0.969429,0.333637,-1.523954,-0.252118,2.299419,0.149426,-0.208072,-1.152699,2.679505,1.638096,-0.990367,0.613632,-0.221309,2.236529,0.793567,0.075695,0.401899,1.701446,-0.639035,0.342473,2.123657,-1.124575,-0.666303,0.026177,-0.991125,-1.131194,-0.243045,1.232671,1.237455,-0.084492,-0.423145,-2.328674,0.857467,-0.276122,-0.037756,-1.077205,-0.004495,0.467447,2.115567,-0.071436,-0.882671,0.286845,1.214092,-0.314141,-1.874629,2.50409,-0.565344,0.009919,1.03221,-0.707069,1.628515,0.69424,0.519753,-1.47796,-0.878971,-0.546186,0.671351,1.0967,-1.135652,1.059331,0.432178,0.319652,-0.537654,-0.13876,-0.660163,0.379168,-0.518607,-0.858382,-0.536001,0.438108,-0.327361,-0.738347,1.372336,-1.082998,-1.261576,1.775842,0.284602,-0.616994,-0.84839,1.724239,0.888728,-0.264307,0.460963,2.384586,1.597038,1.841813,-0.739315,0.678432,0.194092,-2.119872,0.057571,-0.52229,0.388026,-0.936278,-0.814571,-0.442352,-0.93849,-0.830336,1.554033,-1.699429,-0.03841,-0.703911,0.691948,0.353804,-1.24323,-0.081611,-1.544535,1.845723,-0.626126,0.770492,0.363666,-0.053417,-0.870264,-1.809419,0.209074,0.546384,1.091401,-0.328958,0.326,0.238955,-0.467505,1.616112,-1.187833,-0.789334,0.619963,0.858197,0.974153,0.621004,-0.54508,-1.31754,-1.407871,0.071304,0.188955,0.063182,0.13441,-1.723202,-0.609339,0.472444,-0.918299,0.447495,-0.213606,-0.283947,0.694119,-0.416493,-0.529701,-0.594737,1.096726,-1.091775,-0.367046,-0.232832,1.519359,0.412984,-1.189695,-0.944268,-1.249331,1.680052,0.95244,-0.523662,1.048664,2.173645,-0.174993,-0.000313,-2.115231,-0.776426,0.337805,-0.738584,-0.222966,0.538979,0.021489,0.957172,1.651209,-1.597022,1.015542,-0.237339,-2.065607,-0.04878,-0.464681,2.733521,0.285834,-0.381733,0.076245,0.139691,0.040708,0.068168,-0.209965,0.407688,1.028594,-0.116058,-0.427624,-1.356455,0.465899,0.899041,-0.526817,0.222936,-0.337105,-2.083784,-0.332919,-0.862085,0.487081,0.644113,-1.362354,0.619676,-0.026816,0.501121,0.042171,-0.19881,0.782689,0.698807,-0.572654,-0.911368,-0.303417,0.928935,1.692963,0.998577,1.247388,-0.915301,-0.839211,-2.252959,0.05444,-0.492749,0.524958,-0.692633,0.6473,1.647054,0.056088,-0.210872,2.72544,0.508095,0.072548,-0.540249,-0.408393,1.419096,1.194633,-0.332405,-0.313056,0.934306,-1.212374,1.8435,-0.909832,1.99161,-0.408,0.361559,0.694414,0.707488,-0.602481,-0.518377,-0.356424,-0.09646,0.890955,-0.446396,-0.31955,-1.658631,-0.550965,-1.038186,0.667986,-0.487652,2.047305,-1.932309,1.947259,-0.325933,0.545786,-0.926603,-0.762701,-1.759618,-0.004895,0.86885,-0.506158,0.402814,-1.349906,-0.740558,-0.05509,0.502983,3.06099,0.85531,-0.753785,-0.375583,0.105048,-0.834269,1.735075,0.18529,-0.915129,-0.172368,0.406885,0.62644,1.049654,-0.501151,0.645378,-1.879902,0.076388,0.806239,-0.723732,-0.270246,-1.369797,-0.899195,0.938292,0.39268,-1.518946,-1.847155,0.269525,-1.088474,1.062977,0.986038,-0.286987,-0.024166,-1.505928,-0.526353,1.38735,-1.127438,1.165623,1.41327,1.402797,-0.710918,-0.587174,0.115214,2.122172,0.455005,0.490055,0.232604,-1.188107,1.301193,1.809669,0.54003,-0.472592,-1.174053,0.956017,0.195827,-1.153047,-0.508949,-1.754939,-0.145329,-0.761208,-0.584238,0.442152,-0.286313,-0.312866,-1.335607,1.080216,0.155526,-1.005258,0.670807,-0.806716,-1.940628,-0.378857,0.774828,-1.273558,-1.884484,0.162529,-1.215954,-1.399961,-1.287714,-0.802712,0.011624,-0.299809,0.117465,-1.696068,-0.035391,2.184454,-0.443832,-0.74798,1.052248,-1.087475,1.622077,-0.362051,0.899328,0.205088,0.375781,0.925324,0.431794,1.958819,1.171428,1.319632,1.392019,-0.12904,0.823351,-0.81277,0.270131,-2.102019,0.267307,-0.035763,0.186139,-0.236218,-1.031621,1.322676,0.164445,-1.475527,0.570485,-0.126487,0.929741,0.478198,0.364288,0.40304,-0.535592,-0.324419,-1.228753,-0.451577,0.139982,-0.817553,-0.623161,0.713885,-0.021347,1.170927,2.139672,0.692955,1.183261,-0.760711,0.196791,0.725794,-0.658754,1.156762,-0.746956,-0.965546,0.575689,1.24774,-0.827799,-0.368996,-1.314547,0.552212,0.865597,0.332965,0.659963,0.164715,-1.085322,-0.21937,-2.129861,-0.568702,-0.496419,1.064827,-2.186648,1.84667,0.60868,-0.221375,-0.795323,-0.34174,-1.094086,-1.706893,0.781435,0.098561,1.447222,0.289357,1.225636,-0.101009,0.027388,0.800955,1.671789,-0.907826,1.116061,0.072621,1.586136,-0.800284,-0.213471,-0.231041,-0.575627,0.514918,-1.094842,-0.79928,0.256136,0.185828,1.026139,0.84661,0.390155,-1.015049,0.649243,0.782543,0.681206,-0.869817,0.050448,2.033251,0.350504,1.551829,-0.501776,1.297114,2.075847,-1.576544,-0.706548,-1.300123,1.302717,0.854225,-0.418514,1.886896,-0.780095,-0.062038,0.114601,-0.761046,0.874635,0.914204,0.666348,0.601679,-1.10711,-0.387123,0.988179,1.320069,-0.087238,0.083073,0.247425,-0.454483,2.189401,0.145318,0.371944,-0.153146,-0.453362,1.740876,0.708872,-1.758788,-0.5304]},"cancer_detection_non_cancer_a_frame_006":{"score":-0.8353453278541565,"feature":[-1.367511,-2.155531,-0.146198,-0.82518,0.573936,0.667666,-0.945641,0.000687,-0.576767,-1.085058,0.64215,0.717826,0.756495,-0.065927,0.042251,-1.127185,-0.372534,-0.669566,0.180983,-0.127986,1.034021,-0.680291,1.266792,-1.204952,0.160536,0.165591,-0.35316,-0.844654,0.145157,-0.438455,-1.939299,0.064436,-0.153646,0.395685,-0.196927,-1.997798,1.55775,-0.719786,-0.981638,0.665197,-0.517899,-0.254118,-0.578997,-0.584123,1.126064,0.062168,-0.644598,0.474495,-0.587171,3.365786,1.347278,0.565733,0.668137,0.650184,-1.199488,0.27966,-0.39992,-1.472662,0.16044,0.2487,0.407883,-0.172786,0.431171,1.216885,-0.214772,0.984542,0.125337,-0.268655,-0.813193,0.148075,2.401981,-0.45492,-0.401314,-0.220291,-0.869384,1.729859,1.259644,0.109005,-0.814599,-0.723047,2.044306,-0.627907,1.13806,1.189685,-1.220448,-0.742282,0.022787,-0.114446,-0.134763,0.205904,-1.338212,0.030349,-1.495772,0.671461,0.11886,0.767078,-0.091971,-1.846785,1.162777,-0.117007,0.571206,1.322965,-0.449096,1.209537,0.352404,-0.479463,0.358137,-3.104179,0.657991,0.481186,0.136211,-1.316033,-0.973578,-0.591812,-0.25487,-1.86489,0.219922,0.672383,-1.455689,-0.540373,-0.237465,0.823241,-0.014813,0.608313,1.104253,-0.896394,-0.368924,1.240023,1.012408,-2.088531,-1.56941,1.166352,-0.397966,-0.315128,1.402736,0.522933,0.336452,1.465486,0.603081,-2.091156,0.654017,0.23396,-0.13194,-0.50337,1.685431,-0.576506,-1.059225,0.964377,1.100443,-0.253679,0.093291,0.113926,0.426817,-0.744924,-0.80581,-0.337437,0.4956,-0.722232,0.597778,-0.501687,-0.082145,0.36115,-0.288083,-0.534733,1.042725,-0.307069,0.47449,0.390785,-1.100699,0.559868,-1.853821,-0.574976,0.141342,0.456715,1.978532,2.080797,0.66595,0.491131,-0.016188,-0.142742,0.307516,-0.579452,1.040661,-0.793023,-1.048394,-0.097961,0.629007,0.44076,-0.763552,-3.139288,-0.149285,0.375253,1.537545,1.690971,-0.686084,0.053311,1.645891,-0.120512,-0.342272,1.863666,0.401266,1.275045,1.208192,0.46693,0.569104,-0.638517,-0.451793,-1.55471,-0.893437,-0.820299,0.259547,0.267773,1.174411,-1.695045,0.693907,0.437029,1.61729,0.08325,-1.131489,-0.977207,-0.434573,-2.086191,0.586167,0.205384,0.166485,0.178109,-0.361582,-0.578857,-0.016201,0.524529,-0.412051,-0.771682,0.433658,0.781375,0.5464,0.435319,-1.565868,-0.153681,0.302241,-1.017106,-1.265942,-1.014642,0.463891,-1.030377,0.633928,1.064437,0.965333,0.393994,-0.088716,0.464869,1.462531,2.083761,-2.011916,1.423107,0.319729,-0.0877,1.787335,-0.972602,-0.236421,-0.583738,-1.837775,-0.477535,0.769044,0.06318,0.484868,-0.047268,-0.136082,0.203189,0.571338,0.711285,0.87838,2.088904,-0.439415,0.367559,-0.865672,-0.062047,-1.176629,-1.502741,0.6808,-0.568596,-0.297188,0.227952,0.390067,